<?xml version="1.0"?>
<opencv_storage>
<opencv_ml_ann_mlp>
  <format>3</format>
  <layer_sizes>
    128 128 128 128 2</layer_sizes>
  <activation_function>SIGMOID_SYM</activation_function>
  <f_param1>6.6666666666666663e-001</f_param1>
  <f_param2>1.7159000000000000e+000</f_param2>
  <min_val>-9.4999999999999996e-001</min_val>
  <max_val>9.4999999999999996e-001</max_val>
  <min_val1>-9.7999999999999998e-001</min_val1>
  <max_val1>9.7999999999999998e-001</max_val1>
  <training_params>
    <train_method>BACKPROP</train_method>
    <dw_scale>1.0000000000000000e-003</dw_scale>
    <moment_scale>1.0000000000000001e-001</moment_scale>
    <term_criteria>
      <epsilon>1.0000000000000000e-004</epsilon>
      <iterations>10000</iterations></term_criteria></training_params>
  <input_scale>
    8.1585964678858175e-003 -1.3266819233297864e+000
    7.9710981832151247e-003 -1.1976881600980080e+000
    7.9779762927407252e-003 -1.2034163547115326e+000
    7.9301038690181500e-003 -1.1604181992333251e+000
    7.9032244133362285e-003 -1.1316809419557992e+000
    7.8664452921850779e-003 -1.0801234497346435e+000
    7.9475166223279478e-003 -1.1769966443951447e+000
    7.8628516669211682e-003 -1.0734607029578223e+000
    8.2560990518015156e-003 -1.3814041425020049e+000
    8.1623496883213853e-003 -1.3288933165640164e+000
    8.0261095394343358e-003 -1.2405895775799503e+000
    7.8620007742171982e-003 -1.0718023747774175e+000
    7.8756483013500776e-003 -1.0952906420327593e+000
    7.8664452921850779e-003 -1.0801234497346435e+000
    8.0023138688113619e-003 -1.2227843372846408e+000
    7.9143496019098477e-003 -1.1441409941807132e+000
    8.0637423152425391e-003 -1.2669689896922036e+000
    8.0048684404679018e-003 -1.2247448713915889e+000
    7.8930729491293768e-003 -1.1193895340509519e+000
    7.8440656016241454e-003 -1.0155048005794951e+000
    7.8449571246822745e-003 -1.0217754925778482e+000
    7.8438891903803848e-003 -9.8624839047201984e-001
    7.8877050155071651e-003 -1.1124394431293547e+000
    7.8826495314448016e-003 -1.1055415967851334e+000
    7.9376362934116072e-003 -1.1677484162422844e+000
    7.8826495314448016e-003 -1.1055415967851334e+000
    7.8431465367376739e-003 -1.0015396467931827e+000
    7.8767668685473073e-003 -9.1158428874841724e-001
    7.8545322685602634e-003 -1.0553772492390492e+000
    7.8864119235717758e-003 -1.1107101223744280e+000
    7.9194185862898059e-003 -1.1495340671022203e+000
    7.8538891065400053e-003 -1.0537502599713138e+000
    7.9516145061919973e-003 -1.1807230047713633e+000
    7.8520723285762598e-003 -9.5339258208009203e-001
    8.1402190111801911e-003 -7.6004598736696272e-001
    8.3449366651464456e-003 -7.0058952894929472e-001
    7.8713664345445369e-003 -9.1867928637020768e-001
    7.8432207926097171e-003 -9.9539521728362623e-001
    7.8987552214205056e-003 -1.1263928744023388e+000
    7.8587867068878568e-003 -1.0651980859132115e+000
    7.8538891065400053e-003 -1.0537502599713138e+000
    8.1295000226666268e-003 -7.6382906174508858e-001
    9.2648141278106992e-003 -5.5246799322145035e-001
    9.4786769226079641e-003 -5.2989449642348752e-001
    8.0429924724319916e-003 -7.9829793747530764e-001
    7.8713664345445369e-003 -9.1867928637020768e-001
    7.8526591497387038e-003 -1.0505045790238907e+000
    7.8434714217496711e-003 -1.0092737687925271e+000
    7.8545322685602634e-003 -1.0553772492390492e+000
    8.0792710140228340e-003 -7.8288136125881269e-001
    9.2333513100226975e-003 -5.5602531331163607e-001
    9.3628730095567259e-003 -5.4178624780300355e-001
    8.3961606258253704e-003 -6.8842058546671248e-001
    8.0233755951685803e-003 -8.0736759883229070e-001
    7.8802383994711223e-003 -9.0734883448064230e-001
    7.8693406179720943e-003 -9.2153005305921676e-001
    7.8468526209345517e-003 -1.0312575156051293e+000
    8.0100442536955446e-003 -8.1388211190049575e-001
    9.0940912954903565e-003 -5.7261295614797159e-001
    9.2648141278106992e-003 -5.5246799322145035e-001
    8.1438430037657512e-003 -7.5878691063932813e-001
    8.0288661941848270e-003 -8.0477031494865681e-001
    7.8802383994711223e-003 -9.0734883448064230e-001
    7.8944639715793803e-003 -8.9195297549659947e-001
    7.8432857682278895e-003 -1.0061728981287426e+000
    7.9579186604980534e-003 -8.4292723042352458e-001
    8.3205047901178993e-003 -7.0669887415451371e-001
    8.5638525814866091e-003 -6.5345488986197242e-001
    7.9194185862898041e-003 -8.6991767240167994e-001
    7.8538891065400036e-003 -9.4899146219638753e-001
    7.8449571246822745e-003 -1.0217754925778482e+000
    7.8447063530980941e-003 -9.8019605881960692e-001
    7.8432857682278895e-003 -1.0061728981287426e+000
    7.9110709307746666e-003 -8.7675964950104623e-001
    8.2875776018731528e-003 -7.1528169763859062e-001
    8.1330476132823147e-003 -7.6256705660229340e-001
    7.8611688495975104e-003 -9.3445109409869487e-001
    7.8551942379291983e-003 -9.4606750910198045e-001
    7.8572931343221675e-003 -1.0619131671036410e+000
    7.8452264987285223e-003 -9.7718330831278155e-001
    7.8620007742171982e-003 -1.0718023747774175e+000
    7.9246696547459611e-003 -8.6583111877834051e-001
    8.1053698163593164e-003 -7.7269113949339241e-001
    8.0206642956611417e-003 -8.0866805325561986e-001
    7.8877050155071633e-003 -8.9892533582497214e-001
    7.8703439519542968e-003 -9.2010374909077997e-001
    7.8432857682278895e-003 -9.9386497276936947e-001
    7.9110709307746666e-003 -8.7675964950104623e-001
    7.8480519529231223e-003 -9.6521983576393333e-001
    7.9688483712668269e-003 -8.3626933773082834e-001
    8.3109465578834335e-003 -7.0914749764093843e-001
    8.2430408509080490e-003 -7.2760687510899902e-001
    7.9032244133362285e-003 -8.8364128344493909e-001
    7.9228990023271183e-003 -8.6719176849317359e-001
    7.8673913092076522e-003 -9.2438821963455597e-001
    7.9301038690181500e-003 -8.6175828736630311e-001
    7.8455144809826440e-003 -9.7568025087728005e-001
    7.9143496019098494e-003 -8.7401815430629815e-001
    8.3499161152898130e-003 -6.9936970477948568e-001
    8.6767625739100438e-003 -6.3313669058546662e-001
    8.1224806013228765e-003 -7.6635604473481334e-001
    7.9803120649167177e-003 -8.2964551967191880e-001
    7.8987552214205073e-003 -8.8778970705989035e-001
    7.9733694055122029e-003 -8.3361577134630083e-001
    7.8455144809826440e-003 -9.7568025087728005e-001
    7.9194185862898041e-003 -8.6991767240167994e-001
    8.1854214057078198e-003 -7.4499927747949946e-001
    8.3650432450736861e-003 -6.9571421204412842e-001
    8.2218418566424971e-003 -7.3379938570534287e-001
    8.0888757604744305e-003 -7.7905206891553924e-001
    7.9063031697441388e-003 -8.8088380854287773e-001
    8.0074452150294354e-003 -8.1518872075620818e-001
    7.8558750288607315e-003 -9.4460854241258863e-001
    7.8637215460738048e-003 -9.3012703348618364e-001
    7.9454990046383105e-003 -8.5096294339676304e-001
    8.0856500337531754e-003 -7.8032742556513335e-001
    8.0576967596254160e-003 -7.9185465348149620e-001
    8.2094561435326133e-003 -7.3752491000244147e-001
    7.9579186604980534e-003 -8.4292723042352458e-001
    8.1190085904452886e-003 -7.6762103527048486e-001
    7.8620007742171982e-003 -9.3300782264796789e-001
    7.8489448360419701e-003 -9.6225044864937614e-001
    7.8499124700768860e-003 -9.5928949581443423e-001
    7.8646104304602032e-003 -9.2868949783072763e-001
    7.9094616802104431e-003 -8.7813277254213329e-001
    8.0729880431572847e-003 -7.8543963669117944e-001
    8.0547092364511193e-003 -7.9314102258315977e-001
    8.1402190111801911e-003 -7.6004598736696272e-001</input_scale>
  <output_scale>
    5.2631578947368418e-001 4.9999999999999994e-001
    5.2631578947368418e-001 4.9999999999999994e-001</output_scale>
  <inv_output_scale>
    1.8999999999999999e+000 -9.4999999999999996e-001
    1.8999999999999999e+000 -9.4999999999999996e-001</inv_output_scale>
  <weights>
    <_>
      -8.9826231534629441e-003 -9.1009758334633165e-003
      8.0650829545185986e-004 -9.2872892750941322e-003
      1.7801407947235363e-003 -2.2221856158721508e-003
      -4.3019026284002566e-002 1.5177318100929427e-002
      9.9681696184506056e-003 -1.0896667773948595e-002
      -1.7388301380929338e-003 2.1979420418511017e-002
      1.4167063688007245e-002 -1.4546676198688276e-002
      5.8788862289647081e-003 -1.2973166276419167e-002
      1.9681647887415738e-002 -8.2899018726058864e-005
      9.2876322714863287e-003 1.2578859621769960e-002
      2.2445631958425898e-002 -4.4807601620481113e-003
      -7.7417013702743599e-003 -1.8108487290525773e-002
      1.2524961540791375e-003 8.2439947899984548e-003
      6.4401489912730208e-003 8.6387355738825472e-003
      -1.1006212784248499e-002 2.5973819435848249e-002
      -2.3619372882612753e-002 9.9712881465357315e-003
      4.5369301775897708e-003 2.2414236573013026e-002
      -2.2019747465241480e-002 -9.7868890687413702e-003
      -2.6299941253609006e-002 -3.0020518568556025e-003
      -1.3201216729253153e-002 -2.6982430244548985e-003
      2.5768685674574651e-003 -2.1552117115588763e-002
      1.5329590318913754e-002 -1.5985074195612094e-002
      4.0208394028970031e-003 8.5015237717591102e-003
      -1.1206382787770690e-002 2.1450668822650008e-003
      5.4909379454267286e-003 2.3758183061531220e-002
      6.6951321950942258e-003 2.2897365112537846e-003
      -4.1484238786781494e-003 -5.2075381132197394e-003
      -1.3430285928087168e-002 1.3125924282020892e-002
      -3.2733125005396699e-002 -2.4396530585576101e-003
      -1.3812570576023961e-002 6.0725626996555784e-003
      1.4883996544078825e-002 -6.4326554157969514e-003
      2.2554654362224941e-002 1.7997526787109232e-002
      1.5133707285348552e-002 -1.4847710798798115e-002
      -1.3017938540209707e-002 -2.2674222734545686e-002
      -1.9703867563072238e-002 -1.5895572168742350e-002
      2.2873837905909949e-004 -2.8262841333749865e-002
      -4.4082068598689864e-003 2.8812820938578050e-003
      3.1291759185305885e-003 1.1072960251018022e-002
      3.0334470341708284e-003 1.9804125144662680e-002
      9.0795403777728344e-003 1.3486855415325726e-002
      -1.7924039954356829e-002 -1.8161203766143830e-002
      1.7372434707047232e-002 -8.5180737954140204e-003
      4.4811102021249166e-003 -1.9878775052601223e-002
      1.8068784457487088e-005 -1.9046784650058882e-002
      2.2976077023182037e-003 -2.0117478242734202e-002
      -7.5401423215405231e-003 4.3170475597326067e-003
      -1.9057433728778717e-002 5.4779430268746647e-003
      -6.0544366318599798e-005 2.6841160303238674e-003
      -5.1609342529217329e-003 -1.6850637403683321e-002
      -1.1585777026929318e-002 6.5311238446130911e-004
      2.8168570635064234e-002 2.1865574759026868e-002
      1.4657447174970690e-002 2.7570012616374616e-002
      -1.0410019734376153e-002 -9.5101215942444434e-003
      -1.4544376906428012e-002 -1.2731966991310604e-002
      2.5502905226097865e-002 1.7483079249883505e-002
      8.0652513808575216e-003 -2.2287810609495006e-003
      -1.9055453033691588e-002 2.9021218342613852e-002
      -5.5415382207572351e-004 -1.9020241195540272e-002
      -1.1925779978183171e-002 -2.0479044746911965e-002
      3.1450362528240585e-003 2.7166212961091094e-002
      2.1677036513753894e-002 5.5557022263906337e-003
      8.7034379719333217e-003 -3.0828273524665675e-002
      -1.2236987210632601e-002 1.2682864895892423e-002
      6.4551374481938185e-003 -4.9744356535927096e-003
      6.1599246397299806e-003 -5.1673932004416305e-003
      1.2587240813552017e-002 -6.3289368635420463e-003
      8.2865150300216305e-003 2.0756775492495695e-002
      -2.0006403110889283e-002 8.5266998582291566e-003
      -1.6554848339103729e-003 8.7996478178936546e-003
      1.3406252390635719e-002 1.9737190955709361e-002
      2.0374187045909525e-002 -6.9075254941625367e-003
      -5.4384734666939275e-003 6.9203554702828686e-003
      1.1093136284575922e-002 -1.1042473577720103e-002
      -2.4156505949362791e-003 1.1232544078335082e-002
      2.3141365496096560e-002 -1.9536152588882543e-003
      -1.6933678911399346e-002 2.7541364579934361e-003
      1.5614367668471563e-002 1.6681458028976303e-003
      1.4392858386126601e-002 2.6212340241882413e-004
      -5.7958310472910534e-003 -3.5230757651842437e-003
      -5.6125991407031421e-003 2.6431081224221535e-003
      -1.2307433402667927e-003 -1.1439146530975469e-002
      -9.5773226143299143e-003 -7.8438486290582869e-003
      -9.5774473567718441e-003 -8.0905690411381750e-003
      3.5144105071853011e-003 -1.1390122138577508e-002
      -1.1306365238215895e-002 -1.3063538534719282e-002
      1.2996711115684813e-002 -5.7644499607872992e-003
      2.3899941338686968e-003 -6.7632500426912769e-003
      6.0008195178756305e-003 7.5695845138026971e-004
      -6.1362333325963607e-003 4.6123045845762392e-003
      -8.1795632905670383e-003 -5.6464374223343080e-003
      -4.3166894839580684e-003 2.7071775403272784e-003
      -2.2600280320850288e-002 1.6704410035080549e-002
      -2.0607803653449185e-002 1.4877001062965529e-002
      -1.1079645487991788e-002 1.0619605120889138e-002
      -1.4544136195567667e-002 1.7891462590577015e-002
      -8.8510418833692584e-003 5.8241580103797277e-003
      -4.1984552851217468e-003 4.5813398222509386e-003
      3.8619319060317374e-003 -2.3089854230872432e-002
      5.7784501585454104e-003 -2.0368597010867243e-002
      6.8421541955593782e-003 -8.8409650077923623e-004
      -2.3797924016613868e-002 7.0757529329581049e-004
      -1.1483438699088312e-002 1.7935667001623488e-002
      1.6272147041701924e-002 -8.4465486549667231e-003
      -4.0615503722922644e-003 4.0013972376441449e-004
      -1.7881954430115428e-002 -4.6964508920934282e-003
      2.1539094412541277e-002 -2.0910106606907813e-002
      -1.0446118217222652e-002 -1.3370263039183043e-002
      7.7506963790611293e-003 8.6856062753768986e-003
      8.5680677909552218e-003 -1.0244665913229327e-002
      9.9605396359322175e-003 -1.2492232144634674e-003
      -1.7754815149552017e-002 2.4189153266427799e-003
      1.6801084302425443e-002 -5.9423482738038911e-003
      5.6844646169797383e-003 1.1874306987065492e-003
      1.1143351337976056e-002 -6.7832987654630073e-003
      7.8880122636540550e-003 1.9271439026928253e-002
      -1.1804543953104389e-002 2.4607965202531730e-002
      -1.8488833500000301e-002 -1.6422883670478922e-002
      -1.0040896228715766e-002 2.0936770565768564e-003
      3.2556699702138453e-002 1.2854503557728027e-002
      -4.9014454742558914e-003 -9.5049210807467786e-003
      -1.1517394841865316e-002 4.1367180521941806e-003
      -9.2616251286442228e-004 4.5443495584280057e-003
      -7.7296835952195423e-003 -1.3026337646651514e-002
      -1.0683547450602539e-002 -3.1120290945323907e-003
      5.3537594478747308e-003 8.5028948663370373e-003
      1.9321035752151362e-002 -2.5307926171588724e-002
      -9.2843502148222800e-003 1.4209301556438890e-002
      -3.0328960289979089e-003 -1.3502695421836911e-002
      -4.5879599013688727e-003 -1.6417003882156405e-003
      1.6221427775960893e-002 2.2697294049786056e-003
      3.0315279078860086e-003 -9.3410198351546701e-003
      -3.6659332571450610e-003 5.3865659901685958e-003
      1.7149673297549208e-002 -1.3621522149075006e-002
      3.1115076782734920e-003 1.6689843949111337e-002
      -8.2216936547560814e-003 3.3067298867324766e-004
      1.2426586554539010e-002 1.0646195323280597e-002
      -2.1200351257027695e-003 7.4048997871124463e-004
      -1.8022863760734923e-002 5.5270763504024845e-003
      6.1459473495244889e-003 -1.4502550343568201e-002
      -5.0179668693969056e-003 -2.0334267337410328e-002
      -5.3572713418527452e-003 1.7460717365805671e-002
      -9.1134122952359151e-003 1.0711707653768728e-002
      -1.0627428393189589e-003 4.7668271825050783e-003
      -2.4372346070085704e-002 4.3805902482089558e-004
      7.3478073945303802e-003 -1.9982729509252510e-003
      -1.0972466840684026e-002 -6.2116258150696317e-003
      -7.8903835464097811e-003 -1.6847057700244510e-002
      1.0291984340600892e-002 -1.1780614094399830e-002
      -4.8396148425816632e-003 2.1547622390281863e-003
      2.1293716226891073e-002 -1.8187019133347388e-003
      1.4313320012447837e-002 -8.5677280386336243e-006
      -5.0249934497644142e-003 7.7411562166572554e-003
      1.7530445882852467e-002 9.9343205252949663e-004
      1.1564254882211760e-002 1.3957120262211565e-002
      -7.6267090937276894e-003 -3.3507004759407888e-003
      -1.4974816110123015e-002 1.3414347492892012e-002
      -1.5026780100910318e-002 4.3969109904700822e-003
      1.0983221860952722e-002 1.1482157770457710e-002
      9.9333446069097397e-003 5.8521465651333506e-003
      3.7349726725872355e-003 7.5643427328364616e-003
      3.8788846700173424e-003 -1.0911458708863459e-003
      7.8487284350652400e-004 -1.9549643782230965e-003
      -6.6071382323257283e-003 -1.0811015778905917e-002
      -7.2606531972813524e-003 -9.6210471188580751e-003
      -1.8707823480366665e-002 5.6847649038529267e-003
      1.4240047437710132e-002 -8.4828496669291948e-003
      2.0502170800053603e-002 -9.2414455444719702e-003
      8.6389277296827563e-003 -9.6841304978056032e-003
      -1.2033960856437072e-002 -1.7714980670689974e-002
      1.4139546318144805e-002 -1.0611152522063376e-002
      -1.1764526928510070e-002 -3.7192045458685481e-003
      -1.9615133820959385e-003 -5.3839394300175362e-003
      1.0512004313480485e-002 -7.7506349477709149e-003
      -5.9538446733287086e-003 7.6329261857143284e-003
      -1.3096552645737310e-002 -1.2461398108854346e-002
      3.4048029892125207e-003 -1.4493909703364189e-002
      1.8714466072697856e-004 -8.2483180337091580e-003
      -8.3351112713775950e-003 -5.6333158942415930e-003
      -7.9157088971502855e-004 1.7979827328123092e-002
      4.3043212166067601e-003 -1.2946212691463779e-004
      -1.1316416963338136e-003 2.9525193356109126e-003
      -8.6696468397623096e-003 1.2860222208219804e-002
      2.2490613273516577e-002 5.5309716675476014e-003
      1.6723560337470712e-003 -3.7568050610789186e-003
      5.9403624088527080e-003 1.7100327167007534e-003
      9.0648055239739966e-003 -1.5818014327038399e-003
      1.6404561190863920e-003 -1.3772891056611876e-003
      1.2605406375863387e-002 2.2444191341771388e-002
      1.6570835823149482e-002 9.6846962808574757e-003
      -1.2031945285684272e-002 -1.6574245213028607e-002
      -1.1533201437418738e-002 4.7991631925426454e-003
      1.1293193448894061e-002 -1.7783158593860393e-003
      -8.7177041305500323e-003 -1.7478228440504092e-003
      1.5254574049319465e-002 4.2457625588639917e-003
      4.5647494011650872e-003 2.6506706333012043e-002
      -2.7063839444926529e-002 1.6943444177177176e-003
      2.6998142039195774e-003 4.1469566669856536e-003
      7.0680720314934536e-003 5.0341915722708708e-003
      8.6127056844436840e-003 -2.4208979895766480e-003
      8.1282264615662667e-003 -1.8356725775098445e-002
      2.6377379337111078e-002 -2.7757123255941229e-003
      -1.2911021803430242e-002 2.9652762405091336e-003
      6.0791054784292654e-003 4.7910682911923679e-003
      -2.6245863581066699e-002 -4.4707798981114136e-003
      6.6206429825914153e-004 1.6319115416414873e-003
      1.5394088413451612e-002 -4.6808174592424708e-003
      -1.6484728931138583e-002 2.6493547294443764e-002
      -2.6722259635202219e-002 2.5879417184539615e-002
      2.3255416374930220e-002 -2.8321922701749478e-003
      -1.8539817057051385e-002 1.7504917345665727e-002
      -2.1803557089764215e-002 -3.2329126343273590e-003
      -1.0792624485446144e-002 -8.4464305610078391e-004
      -2.2768997435161680e-002 -1.6715214052709482e-002
      3.0038469862600791e-002 9.8705136669115885e-004
      8.7409642860275128e-003 -6.9215413856365034e-003
      -1.1313654639007139e-003 2.5300967607006352e-002
      -4.3728799321332036e-003 2.1755655530743084e-002
      1.1315126215016159e-002 -4.9303485328336515e-003
      1.3160026055002394e-004 -1.1937716684326622e-002
      -3.3410090942729197e-002 -1.5396511804813601e-003
      -1.8107786587558912e-002 -4.0697154192588817e-003
      -4.2957580736718029e-004 -7.8035295710372037e-003
      1.1635509287544700e-002 1.2133615201173812e-002
      1.0479548921447451e-002 1.9440777489864194e-002
      5.4470182049993257e-005 -1.0463145883607358e-002
      3.6186103480507891e-003 -2.6465660823236554e-002
      6.3849760621103157e-003 -1.7015468774175899e-002
      1.7026068221515034e-002 -2.7898732139302152e-002
      -7.9373044485733946e-003 -1.5439702764839008e-002
      1.1207966541490371e-002 1.9899618550396979e-002
      1.5962881465128354e-002 -1.2348399482386432e-003
      2.4623813083287413e-002 3.4823324158022233e-003
      -4.8775968894689053e-003 -3.9358298159454285e-003
      8.4934796179122161e-003 -2.3337129134180609e-002
      -5.5807582584455747e-003 -1.4500760034951087e-002
      5.4734123406209711e-003 -2.2510842960346781e-002
      2.0672407344358393e-002 -1.5626102767749842e-002
      1.1090289039467769e-002 1.2759545074094308e-002
      2.0459738035972360e-003 5.1976241704527349e-003
      2.2421942561014502e-002 3.8516351973845440e-003
      -5.7961465914406580e-003 -6.7900044603533948e-003
      6.6631276620476047e-003 -7.2199457929248778e-004
      4.3915397585698899e-003 1.1150686086942481e-002
      -6.2624750932791125e-004 2.2139420929206035e-002
      1.9566291396788263e-003 7.1269051711033678e-003
      -1.6295126833622452e-002 -3.0144847792860467e-003
      3.8119046709179323e-002 -2.5386453992838854e-003
      2.3874513104452981e-002 1.5898239199027747e-002
      -4.3530462567136748e-003 9.7899279316704287e-003
      -3.7347800929350724e-003 -2.5241245454866484e-002
      -3.2777396714655589e-003 -3.7276859497824645e-002
      -1.8461793915926332e-002 2.7040335680236241e-002
      8.7569285844139484e-003 -1.5820482796472215e-002
      8.4522127158118375e-003 -2.0204534168651079e-002
      9.8148884005204978e-003 -3.4561964734696120e-003
      2.9765579660219420e-003 -5.6717265388167995e-003
      -6.6223930360031205e-003 -1.2527673667151787e-002
      3.9339411154756705e-003 -1.1585578351201824e-002
      -1.2811248170164919e-004 2.1490234803601151e-002
      -3.0819345575293429e-002 7.2664795435176902e-003
      -2.9459905818272113e-003 -7.2034479435354399e-003
      4.8994944658714993e-003 2.0511734540944387e-002
      9.2937438204786990e-003 2.4977681728129020e-003
      -1.0510875729860550e-002 2.1636855342413502e-003
      2.5821766571067075e-002 -3.4964996819905961e-003
      -4.3198471406496654e-003 1.9923700232083445e-002
      2.0317022694984949e-002 8.4310750237328452e-003
      -2.1388605647575314e-002 -1.9101869553211755e-002
      8.9127262069089823e-003 2.2891181072983494e-002
      4.5121340149601192e-003 -3.6718100050327431e-003
      -9.6859890154086664e-003 1.6971875127488750e-002
      -2.6895403075745547e-002 2.4622910420706568e-002
      7.5105532333392061e-003 1.9544942679998088e-002
      -2.7727198892097567e-002 3.8897870969118132e-003
      -1.7898540415280696e-002 -1.6009731342539937e-002
      -1.6333652562953657e-002 1.2908439955982166e-002
      -2.5312200897803414e-003 -1.4876884198538082e-003
      2.7824904596514034e-002 -3.0370248700936669e-002
      -1.0724624196272200e-002 1.7270843874959180e-003
      -8.7466767793461294e-003 1.6790678287322416e-002
      -1.6029048702808852e-003 2.7304808488018799e-002
      1.0753051101881711e-002 2.3119630112929812e-004
      -2.0824341562074144e-002 -1.4485580689319216e-002
      -3.4461451625897137e-002 1.9454971337041750e-002
      -2.5860137233180907e-002 1.2502666803179243e-002
      -1.3637184433899422e-002 -4.2289819102735784e-003
      -1.5042813687814438e-002 1.2195839400035614e-002
      2.5827461117638711e-003 1.4865022270083997e-002
      1.7636945225518647e-003 -1.4924722074553981e-002
      -1.5916091116265272e-002 -1.4676542850862482e-002
      -1.0138840893595201e-002 -3.8549122601507696e-002
      2.2358109267603568e-003 -1.9778799444441945e-002
      -3.1818961495893937e-002 -1.6461419391000900e-002
      1.3131173613708741e-002 -4.2279987530763619e-003
      3.3183532485497574e-002 -2.0948382904493355e-003
      1.0657026976705484e-002 1.4061459619119100e-002
      -3.8975540935646618e-003 -8.8591049049774814e-003
      1.9417240517297554e-002 -1.4862636466051489e-002
      1.3937763561856564e-002 -1.4596258935157336e-002
      -9.6508552242082694e-004 -2.1244853321049646e-002
      1.4758335160925028e-002 -1.7367680037220005e-002
      -6.3088751951013424e-003 1.6186695912746338e-002
      -9.5160370210929570e-003 -1.6933427595762423e-002
      2.5937842565697526e-002 -2.3298545615677454e-002
      -1.7350077288483774e-002 -6.5385836665299941e-004
      4.1175638582011198e-003 1.7012337653171838e-002
      3.3719628548608119e-002 2.5340831826855120e-002
      1.2099610027761339e-002 1.8452891305271196e-002
      -5.5324643536866138e-003 1.7996853561956954e-003
      2.5751210862400933e-003 8.1340359723087625e-003
      1.9997107860840621e-002 1.7384947437709877e-002
      6.0857884717201100e-003 1.1062749133930728e-002
      -6.2139145189730027e-003 6.7669425874296221e-003
      -1.5683395512067816e-003 -2.7134304153312042e-002
      -2.4097978899798773e-002 -2.9145957910821516e-002
      -1.4759596682708943e-002 1.6827923727067852e-002
      -6.1457545719675608e-003 -7.6717527829310303e-003
      9.1323199113026122e-005 -1.7597351157124474e-002
      -8.7589588024898515e-004 6.7250089284673024e-003
      -3.4826198156102861e-003 1.6150305270071759e-003
      -5.7958976691294623e-003 -1.0644423929343928e-002
      3.0961206490407113e-003 -1.7888716506776803e-002
      -3.5337015254216951e-003 2.2174663915769416e-002
      -5.6239303042232439e-003 1.5254894447193516e-002
      8.9888050925515054e-003 -1.3485180779624996e-002
      -6.9572584726125203e-003 1.4477734013155846e-003
      1.9741706950303896e-002 -1.3197134427228236e-002
      -1.9017770450024188e-002 7.9130810029760922e-003
      6.2918469108491247e-003 -9.6492262346063000e-003
      -1.1250346726884755e-002 -1.0178411875105826e-002
      2.0995229896056292e-002 6.1106499443458959e-003
      -2.6189633802236007e-002 -2.2595791734307105e-002
      -3.6295832445830726e-003 1.3436444637986416e-002
      -6.8627187977790419e-003 1.1340369257187993e-002
      -2.1784103159398949e-003 1.3185171847939693e-002
      -2.4322959153171744e-002 2.7298678372480352e-003
      2.4602521924411468e-003 -7.5484580517866254e-003
      -2.8034217454035552e-002 7.7399439817771873e-003
      -8.6997135349154014e-003 -8.5095726531270576e-003
      -4.9783364181094913e-003 2.0954233238370274e-002
      1.4702366100784658e-003 2.9436379601578784e-003
      7.7113260834346595e-003 -1.9946699657799150e-002
      3.4817560845828146e-003 3.9689075343984316e-003
      -1.3009636258292845e-002 3.8663379681213000e-004
      9.4193857621687783e-003 8.7108795124314995e-003
      -7.7541995841351550e-004 -1.0854336018285152e-003
      -1.0058440461677184e-002 -4.1848299405607119e-003
      -1.2379694912612368e-003 -1.4682488626339906e-004
      -1.0535227737064364e-002 2.1547914708295282e-003
      -1.0623528462163722e-002 6.0621216495556638e-003
      -1.3948353724091416e-003 1.4152146538630856e-002
      -8.1752384549647287e-003 1.2564402698714375e-002
      4.5170405742074515e-003 -4.2171531398220562e-003
      8.0689550563541722e-003 -1.4426898334289888e-003
      -6.7553850847398324e-004 -1.1126964916809473e-002
      8.2219849357398800e-004 2.0063567767492369e-003
      -8.9089179443363684e-003 -3.5306037364917476e-003
      -1.4079207505069333e-002 3.7178092259705347e-003
      -3.1294450453424392e-003 1.1511780426353519e-002
      1.3950323082308948e-002 -1.3214160112418639e-002
      -1.7127334490406865e-002 -9.8518426461033492e-003
      1.3296738958588447e-002 -2.1635334489404762e-002
      -1.3120635111259831e-002 -4.0412863342528440e-003
      1.0790808573915414e-002 -1.0289619223569310e-002
      9.3591924340465163e-003 1.8538929427740854e-003
      1.4765425244895748e-002 3.3911982140300851e-003
      6.8049845045113234e-003 9.3920058385339429e-004
      2.6006770299698414e-002 -1.6237520687040451e-002
      -5.9040846558359780e-003 7.7367870091869587e-003
      -6.7709107953294852e-003 1.5908487232718770e-002
      1.1190191798549716e-002 -3.0040739240824290e-003
      -1.1200901018481368e-002 2.1586629549268641e-002
      -1.9701088714265503e-002 -1.2398981163779870e-002
      -2.6976438163106532e-003 -8.0180799711124608e-004
      5.5802409823814793e-003 2.1064846565803713e-004
      -3.7457968965536300e-003 -4.3027529230302035e-003
      3.8417653238060172e-003 1.6308100891483570e-002
      -4.6984568978310944e-003 -3.3186049994637962e-003
      1.6120431309235915e-003 -1.8576606937820275e-002
      -2.5681308196460330e-003 6.5150415403186963e-004
      1.3696889742200014e-002 -1.1617641231199632e-002
      -7.9776148465792694e-003 -3.1470732556105427e-002
      1.2129365399263629e-002 -1.0271145959997228e-002
      -8.0774120966697286e-003 8.2414915220430118e-004
      1.2773775979366176e-002 9.1581717319753654e-003
      -8.3375573091186133e-003 3.6627026725361217e-003
      1.4015941052393767e-002 1.2321565830004879e-002
      -1.3190008996084870e-002 -8.6695077968889321e-004
      1.3396407639275229e-002 1.5476971444818563e-002
      -1.3358247815562834e-003 -5.8235179526798788e-003
      -7.1726621551206661e-003 -6.9311788982012084e-003
      3.5047116827587564e-003 -4.0544548797109056e-003
      -6.1648956257016260e-003 -1.6266683452725441e-002
      -1.1503887134238791e-002 -1.2824182889283478e-002
      1.7664456504491641e-002 2.8366260764480611e-003
      -2.9645336132209290e-003 6.8352381992571242e-003
      -1.0168921178487545e-002 -1.2608247025526860e-002
      -1.7369380045476166e-003 -1.2505216856333578e-002
      -4.6978486853842807e-003 3.9866798334985297e-003
      -7.6024705402929623e-003 -8.0645757998893829e-004
      1.0484810390839401e-002 -1.1776412264148746e-002
      -8.5886990622164993e-003 -7.2774124979016405e-003
      -8.7663583596853441e-003 -1.3644672267290069e-002
      2.7101871020235291e-003 7.3059655769246463e-003
      -1.2213076454328389e-002 -8.8621820375999107e-003
      2.0402615885981457e-002 -2.0528663715440851e-002
      5.1034646182811488e-003 1.2046825517995102e-002
      1.2900831893039078e-002 2.4610733351258037e-003
      3.2311647471722817e-004 4.0438229288852897e-003
      -3.9907062947840653e-003 1.3655102039401635e-002
      -3.7824647965742537e-003 -8.7297335749633928e-003
      5.7014400447581706e-003 1.9799053252004444e-003
      -1.1951723629368893e-002 9.7493681766866753e-003
      2.2425820107339982e-003 9.3351468001945589e-003
      -1.1038258379303492e-002 9.0481932282744908e-003
      3.4154176540420042e-003 1.9369783205385103e-002
      -1.2801458528539721e-002 -1.4177779277804444e-002
      7.3949269882289176e-003 -2.1898141449828105e-003
      -1.7180024915282498e-002 8.9129010685135707e-003
      -9.3309209690350219e-003 9.4370518338855180e-003
      -6.8513960877325964e-003 -1.8800464137185263e-002
      1.1892689336989559e-003 1.3037364432280462e-002
      8.8473200928637467e-003 1.6536776235853531e-002
      -3.3876844646012487e-003 4.1739545688757821e-003
      -1.0288611440344779e-002 -8.9040425977117924e-003
      -9.5550504113439821e-003 -2.1619308522684275e-002
      3.0683643095089459e-003 -3.0989018174832450e-003
      6.1859197052608937e-003 1.3233075177797305e-002
      1.2424983705907573e-002 -1.2585085559134407e-003
      4.4558157422291160e-003 -8.2508257740041020e-003
      -4.6472250880661738e-003 -7.4645059935125801e-003
      2.8584728536087851e-003 -1.2707271492503208e-002
      -1.2649506623215376e-002 6.6800829105167813e-003
      2.1159432711716098e-003 -8.3886203689195679e-003
      -3.3718526191780195e-003 -6.4857836515289863e-003
      -1.2997119985867544e-002 8.4993780240696822e-003
      -9.0221927430175607e-003 2.7456481856177541e-003
      -2.6013799017701122e-003 -8.7340650366582399e-003
      1.8635172121852749e-002 9.2870815678662757e-003
      1.7360612685986435e-002 -6.7647177341020092e-003
      -3.0675419618671771e-003 4.3705592372062993e-003
      1.3884541164540321e-002 -1.3960543552999005e-002
      -5.9238429517729126e-003 -1.2468342410623503e-002
      -8.8048459919617321e-004 1.4972674460063824e-002
      1.1180299937482091e-002 -1.0153325879175914e-002
      -1.2286139571165146e-002 6.8326334020980275e-004
      -7.9720941452630246e-003 -8.3333274852260501e-003
      1.5647587017719799e-002 -9.4358861860331135e-003
      -4.4333619432125560e-003 -3.9324183907012908e-003
      -8.6463843776312405e-003 -1.4293177486078260e-002
      5.3467325282985827e-003 1.8499453314540259e-003
      -2.4379665941797152e-002 -9.5503266077123035e-004
      -9.0723024711881345e-003 -4.4689487002744716e-003
      1.3303332140897010e-002 1.1424689899973880e-002
      1.9595966474361473e-003 -6.0327668020566097e-003
      -9.0424706959735569e-003 -5.9930796824499873e-003
      -5.6761292784449531e-003 -1.3080167387160233e-002
      -1.0296447259069794e-002 -1.2577920034339809e-003
      2.6181116030784581e-002 -3.7696749926330510e-003
      -8.2033591388336480e-003 -2.2495505235441908e-002
      2.9894306304327272e-003 -2.1617409360552169e-003
      -1.6423098564993958e-002 -1.0052472697368212e-002
      -2.6521049122161234e-002 2.2552891298303804e-002
      -1.7031446961062346e-002 1.5479862830052609e-002
      1.4124040443965983e-002 -2.5149356127898950e-003
      -4.9816087189662722e-003 2.0107185196915405e-003
      -1.2844611418766669e-002 -1.3971015303069624e-004
      -1.8114409726156203e-003 1.4918941924526451e-003
      -2.7333797981172717e-003 2.9093494439985609e-003
      5.3918713112963675e-003 -6.6675253024594192e-003
      -1.6629927521804059e-003 -2.4014202734730155e-003
      9.7515800988152677e-003 2.3403606465029304e-002
      4.0327720098936003e-003 -7.4467373741866373e-004
      7.8603321209360314e-003 -7.3721452831965757e-003
      -1.8879427441127326e-002 -5.3882487191794165e-003
      4.1669387964764180e-003 -4.1869182095788564e-003
      -1.5052723310058021e-002 1.1903625508116172e-002
      -5.3919564252863650e-003 1.4692538623992725e-002
      -1.3105405411032176e-002 1.1747364635288551e-002
      4.4157491413442402e-003 2.1956851071179593e-002
      -2.1179387289231673e-003 -8.5868849761766303e-003
      7.5684789224721195e-003 -2.9468893450482741e-003
      6.7740808721627273e-004 -7.1361150045715352e-003
      1.1439412403459016e-002 4.8196036447786771e-003
      -1.5544711719420824e-002 -2.1024511662252412e-002
      1.3713827453723562e-002 -2.0409668419460888e-003
      1.5950446643226493e-002 -1.3216545027857872e-003
      2.0321921988613042e-004 -5.0171908556712079e-003
      3.1327339487368261e-004 1.7767253978066382e-003
      2.1546351207811612e-004 5.1189898699475983e-003
      1.2826154324301616e-002 2.0960030957694361e-003
      -1.2321261590034547e-002 -1.8913570897105797e-003
      -4.6550853352736446e-003 -1.6904040023378328e-003
      1.0530454218254397e-002 1.7843228237788687e-002
      -8.6329313654374506e-005 -1.4273805286306620e-002
      9.9474713934937075e-003 -6.3132953650987022e-003
      -4.0819141937153093e-003 -8.3195178217185112e-003
      -1.5684368046442472e-002 -5.8063009777892761e-003
      2.2543416768472310e-002 4.9652430491317068e-003
      1.1447904563910429e-002 9.2086410121449396e-003
      -7.0704302084970208e-003 9.4770665811486181e-003
      1.2979241983748493e-003 9.4500373693101290e-003
      6.6748894570683717e-003 -2.8015282758046801e-003
      -3.8000223207810707e-003 -2.5918440020641967e-003
      -6.8083759221741844e-003 1.7907804516256953e-002
      1.7429907699607533e-002 -1.5370197250537903e-002
      -1.9506633832907991e-002 -2.7300591333044126e-002
      -8.5554236117525544e-003 2.6533408876242980e-003
      6.4974700297271764e-003 -1.7576818785292759e-002
      -1.9015495104400080e-003 -2.1996344408049529e-002
      3.6409338656096823e-003 -1.0790650867324617e-002
      -6.8377337756264332e-003 1.4519730190441343e-002
      -8.3990002287197500e-003 1.2662563735482220e-002
      -5.6232242155055756e-003 6.5643506637408583e-003
      1.2824050697227005e-002 -1.4752559545868566e-002
      2.3766249601440653e-003 -7.6446086883149667e-004
      -2.9599971607125117e-003 -5.5279023153217265e-003
      1.7280274843629502e-003 -6.2149673696393409e-003
      -3.5934701998572701e-003 1.7195101775218271e-003
      -6.6323006704783454e-003 7.4119717015484086e-003
      -1.6895966126093249e-002 2.8271421929871150e-004
      2.8557525484303086e-003 1.2566936547523104e-002
      -1.1023318742069979e-002 -4.5938649508459051e-004
      -8.4925022443376325e-003 -7.6709923199520871e-003
      4.2326029552870021e-004 1.1316026282016188e-002
      -2.6637507263371032e-003 7.5565387434918460e-003
      -1.5066872675357623e-002 1.1362901305112879e-002
      8.1884897761639996e-003 1.1416557025138900e-002
      -5.3138175705936394e-003 -1.1911246421387594e-004
      -1.7321394301697440e-004 -2.8221978683838837e-003
      1.4126819027821961e-002 7.9554915461463351e-003
      -3.0546960961186369e-003 6.0978699814547453e-003
      1.6096630712164970e-002 8.0202069506011761e-003
      -2.4147841975773261e-003 -2.4302275960179621e-003
      6.6681877297292214e-003 -1.3942002961132731e-002
      -5.0918745525202229e-003 -1.3999703758060894e-002
      -2.1232310132880709e-003 1.0110295024599602e-003
      1.1149333613795708e-002 3.2482797325419479e-003
      -7.1739967028968685e-003 -1.0848908187628991e-002
      1.1537277023378116e-002 5.4570720943048273e-003
      2.6137008020097819e-002 9.0248131788605527e-003
      -6.2022536847254114e-003 -4.1280805710478844e-003
      -6.5063481810639116e-003 -6.3704958044020835e-003
      1.6512120785372321e-002 -8.3169892966895309e-003
      1.7750731779327231e-003 5.2757169969117881e-003
      -1.1067876075339714e-002 -8.2736158013811713e-003
      -1.2894732797276074e-003 -1.3586006251293659e-002
      -8.2337426188945767e-003 -8.1920402579230764e-003
      5.5017116931439271e-003 -1.4929170246462030e-002
      -4.3758587514531756e-003 -7.4672270855486046e-003
      1.0198183224142919e-002 -1.2450881517790741e-002
      -3.5517223467367649e-003 1.1061773544554936e-002
      1.0810005544136445e-002 8.3951797498773130e-004
      -1.0061697829975956e-002 1.0254807852946989e-002
      -1.0238163068362924e-002 -8.3590746868600230e-003
      1.5947269279348829e-002 1.5950945173913874e-002
      2.9773755886838434e-003 -8.0473518177234284e-004
      -4.1838257603757263e-003 -9.1378032732264084e-003
      -2.9591149253824865e-003 -1.0456968191413056e-002
      -3.8267740476032324e-003 5.9918970125807944e-003
      1.4429787635903309e-002 5.8855075953475611e-003
      7.7335537708122151e-003 -1.9861206545030837e-003
      1.3335642378629499e-002 -1.4686848421360107e-002
      8.8865792218513224e-003 -1.6014646577204424e-002
      1.6146182564590727e-002 1.2905175910137205e-002
      -1.2040018914513626e-002 7.2857085719527277e-006
      -1.4264246323561181e-002 -8.2916255785250477e-003
      6.8602047435502495e-004 -1.2555575836517632e-002
      7.0130113566490926e-003 -4.5032234426465520e-003
      -4.3310862138937426e-003 2.0184232344230336e-003
      1.7090960933549892e-002 5.5686039408376631e-003
      -1.2371782238516567e-002 1.1478039538675470e-003
      -3.0526816649045058e-003 -1.0794149200300992e-002
      -1.4236496419139094e-002 -1.0379352949152595e-002
      8.9548173067778743e-003 -1.0957431063928299e-002
      -1.7642228258092677e-003 -3.8206626002216791e-003
      9.6436885902145986e-003 1.8372283472186703e-002
      -1.6221481161992717e-002 -5.2675300873474421e-003
      -1.2304594852504029e-002 8.6099530525360363e-003
      1.6932037459021176e-002 -1.2213033421457353e-002
      1.0822648473125390e-002 4.7464578862481295e-003
      5.2259709157620755e-003 -7.4898978124489585e-003
      1.1527271498535710e-002 -7.5991366516272602e-003
      1.2375920791764479e-002 6.4377807020210964e-003
      -9.7221798287897895e-003 1.6890391876764076e-002
      -5.4472605988558735e-003 -7.9125526526745392e-003
      -7.3618614010210982e-003 -7.7471181211979153e-003
      6.8336176180507071e-003 1.1283982087527468e-002
      -3.5609725485444615e-003 -1.3635914200925027e-002
      8.8177132122962531e-003 1.0496370380143701e-002
      1.1880085802493060e-002 -2.6126193454438463e-003
      5.8899660949648857e-003 1.2029817645647102e-002
      -6.3611566040980057e-003 -5.0580783135570056e-003
      1.5631206906936663e-002 -1.6334632173772803e-002
      7.3676481317105945e-004 -6.1915764181678830e-003
      1.0733040885997880e-002 9.6268254747229366e-003
      1.8414231722819370e-002 -7.9537881986990744e-003
      -1.1321667295854600e-002 5.9282817529316464e-003
      -6.5489765223899063e-003 -5.1121313490910831e-003
      7.1022138966126327e-003 7.3096926488577527e-003
      -1.4906828211800605e-003 1.7293803532083293e-003
      -9.4643304727719639e-003 8.4234781087752855e-003
      9.7365866250409445e-003 8.8482771570077309e-004
      1.7511907557444650e-002 8.4606514323810507e-003
      2.9364700596583620e-002 -8.5316974401250748e-003
      1.3836231648587357e-003 8.9406973525869970e-003
      -2.1899635534799065e-003 6.6021796089508426e-003
      -9.3987744034839255e-003 -3.4290471183004594e-003
      2.8056862586838746e-003 -8.5551830301572734e-003
      9.3960827908987996e-003 1.0218195984589283e-002
      -7.5267456262010056e-003 -2.8104012294714346e-003
      -1.5068340435102530e-002 1.1615077509871707e-002
      1.0354085099533653e-002 -3.7334925076637770e-003
      4.8490355488463094e-003 9.8095818895659395e-003
      -9.0573556454171950e-003 -3.4778322421353076e-003
      -1.4644471726703591e-002 3.5314250169358441e-003
      -9.9691768200403717e-004 1.8894336418673992e-002
      -8.4844365496314564e-003 2.0231218959242261e-002
      1.4057388294659497e-002 -5.7808446807397400e-003
      6.2821110356568914e-003 -1.4537447752376630e-003
      7.0099976580598258e-003 6.5680892673346839e-003
      -7.0231388303201581e-003 -7.8601210733775795e-003
      -5.9778168723667539e-003 -1.1173168852755501e-002
      7.8056839610224490e-003 -4.0448746599075517e-003
      -7.5723699714214041e-003 -7.6575610335987100e-003
      2.7508458526406794e-003 -5.7161704382945652e-004
      -1.3900100968668510e-003 9.5992312899209117e-003
      8.7405667000620586e-003 -7.7814583586970805e-003
      -3.2529769434255732e-003 9.9703564558447123e-003
      2.9924669448789594e-003 -1.2057038872204487e-002
      -3.5117330028709932e-002 -7.0332822825705456e-004
      -4.9147314489669559e-003 1.3808058305761423e-002
      3.3857957614070864e-004 -1.1680825092732869e-002
      -1.1255485199944508e-002 -4.5973137401519844e-003
      1.1602864407165533e-002 9.5847733585767824e-003
      -4.1276178632883836e-003 2.9228089631589587e-003
      -6.7351945798527326e-003 -6.9987144677696005e-003
      -2.4260927272676401e-003 1.1132459657702515e-002
      1.0386724356432285e-002 -3.9236091297803199e-003
      1.1572578730396145e-002 8.0052387460593927e-003
      1.0025300075727073e-002 1.7672018863227484e-003
      -1.2874687451976329e-002 1.6380843387822367e-002
      -1.9701068816201300e-002 4.8320814579942781e-003
      3.1032127121023167e-002 6.8765104684110918e-003
      1.9827935838356506e-004 -1.4651935807908668e-002
      -6.2881092583092950e-003 -1.8451188246820877e-002
      8.2564370555338468e-003 3.7782247391075306e-003
      1.8099403280287330e-003 1.4457673828669580e-002
      7.1983133526319736e-003 5.2753152441289220e-003
      1.0684483546720509e-002 -7.8263807535561107e-003
      -2.1635272818691129e-002 -9.9227571226250482e-005
      -3.7041387805987077e-003 1.0386769938576955e-002
      -1.0735886447318151e-002 -1.3228962393313302e-002
      3.8635569758950672e-003 6.7723343198288558e-003
      1.5670447079445843e-002 -1.1043835769962583e-002
      8.4779542747619660e-003 -2.1067862032271741e-002
      -4.4496434342837961e-003 8.6631687218992216e-003
      1.0997090526624636e-002 -1.4482863258766609e-002
      1.4088201196796159e-002 -6.6090051312845286e-003
      -1.3165159580633230e-002 3.3606574965724285e-003
      1.2532681918189872e-002 -8.7480296649547866e-003
      -1.8505911818120408e-002 -7.4014661728481063e-003
      -1.2641863998526201e-002 1.1335047000748570e-003
      4.0754860894419258e-004 -3.0797990623760325e-003
      -1.5343018665046643e-002 -1.0641703699115313e-002
      2.3041803042425104e-004 -1.0908745018465844e-002
      -1.4063771632819575e-002 7.6504553324916779e-003
      2.1330564811497234e-002 -1.2201480421898489e-002
      3.1747482164283004e-002 -1.7726934673521549e-003
      9.9378995081030336e-003 -1.0727080146383863e-002
      -1.1025151273787781e-002 -7.0713598297330229e-003
      5.7538849506254515e-003 -1.5274924823222485e-002
      4.4347534761341221e-004 -5.8486132243863774e-004
      -2.2609791027496870e-003 1.7886540399789937e-002
      1.1590787358605666e-002 7.2645345295299524e-003
      2.5456841188160047e-003 3.2243939481922906e-003
      1.7961879307047457e-002 8.4684815432657067e-003
      1.6069842619766475e-002 -8.5004850734626321e-003
      -6.2420375848930686e-003 -1.0612024444361042e-002
      -7.2044914255886385e-003 -6.1311139714373937e-003
      9.3003205463365098e-003 -3.6311537603244434e-003
      -1.1199602467498659e-002 -5.4953382316696303e-003
      2.6393267978467574e-003 1.6798774146599238e-003
      3.5566374994825309e-003 5.9092379063329864e-003
      -1.5466200954778338e-003 4.5638095080313898e-003
      1.5723573522321102e-003 4.2402361933462701e-003
      7.6426142937098722e-003 -4.8180415808859404e-003
      -1.7578125014409093e-003 1.9269388647053676e-002
      -6.2394697296073260e-003 1.4945059323350204e-002
      -7.1144150342605681e-003 -2.0211497182826187e-002
      -1.9996066365072163e-002 -1.0982691821116509e-002
      5.3540379253806027e-003 -3.3856391301044734e-003
      -2.3515433681861571e-003 8.8784979999256180e-004
      7.6689565464505135e-003 -1.0432974193150667e-002
      -4.0946253873168394e-002 -1.3172824036925913e-002
      1.0419396359736164e-002 -4.0012480136676518e-004
      -5.9340181203364093e-003 -1.2012642768570865e-002
      -1.7494736957434070e-002 -4.2622976721524751e-003
      1.9816706475135407e-003 3.1327212549059603e-002
      1.5547966458147348e-002 -1.3591690084014204e-002
      -2.9566038792015778e-003 1.6531498877441021e-002
      1.6878167467677320e-003 2.3233676380825814e-002
      1.1217320664003471e-002 3.9138651973334906e-003
      2.0785927286031719e-003 9.1812272810386109e-003
      1.4340611616171567e-004 1.8245287590374065e-002
      3.4872280719315018e-003 4.6857179562609435e-003
      -1.0317936809126564e-002 -1.9789928661203347e-002
      3.7009934880447903e-002 6.0666879400571678e-003
      3.1439873811377273e-003 2.3537857856856500e-003
      -2.0125291335683932e-002 -1.3345564971014095e-002
      -1.3268434119355379e-002 -8.4351093224403085e-003
      -2.8729560510751930e-003 -4.9234477775924679e-003
      -2.9860479113168878e-003 -2.0279493107368159e-003
      -1.9222515479721818e-003 -5.1842443555532680e-004
      -2.1302408717386999e-002 -3.6170920279194351e-003
      1.2276369531249864e-002 1.6591432100326178e-002
      -1.4897639583198491e-003 3.6615201539238893e-004
      1.4622027589384011e-002 -1.3510219883975881e-002
      1.0078886148872410e-002 -2.0646512345231759e-002
      1.2166055911607474e-002 -6.7040824577247020e-003
      -1.7876111167958897e-002 -1.1583740068583563e-002
      1.6333577633780513e-002 -1.1030072402285063e-002
      5.0404006896831409e-003 -2.7598796678196874e-003
      3.7904582210001561e-003 2.1492171884687000e-003
      2.1572241650225414e-002 1.2997454569860557e-003
      -2.0131934875891756e-002 2.1134422975794646e-002
      2.5019911191118253e-003 1.1101369201301198e-002
      7.6030356890807917e-003 5.5799615883315801e-003
      -6.3700237776239113e-003 -4.0385835078423742e-003
      -1.1683306558548198e-002 -1.3560680847323139e-002
      6.1847937890365029e-003 1.5822314482597924e-002
      4.9335051903682883e-003 2.0075273571652579e-004
      4.4538510883365710e-002 -9.4676560336435841e-003
      -5.4567061222125391e-003 4.3924527281831178e-003
      -6.1115252119728380e-004 -2.8494983467489987e-003
      -1.8215878606537096e-002 -8.3927651100592603e-003
      -1.4492799032983512e-002 1.2610731861820212e-002
      -1.1401240160378353e-002 2.1216407029274770e-002
      4.7454135375590420e-005 2.3117220783836741e-003
      -1.4060537760370698e-002 1.3325008891332861e-002
      2.3539716297794673e-002 -1.4407557993682616e-003
      8.2853540064272667e-003 6.6792417828053985e-003
      -1.8364835995347894e-002 -1.2026199428597053e-002
      -9.9456033184026783e-003 -1.0449883944600122e-002
      -5.1492145527198326e-003 2.2298388723830595e-002
      -1.8004170134679316e-002 1.8974920626495646e-002
      9.6297143630815762e-003 4.9634650469081625e-003
      -4.8976832803285285e-003 2.0877161132159491e-003
      -7.6233219047539252e-003 9.9377924852315589e-003
      3.2000533997145423e-003 -2.4542709697597458e-002
      1.1274354849175315e-002 9.6493757208838092e-003
      -3.3079917560782431e-003 1.0350430643612437e-002
      1.1407727358507104e-002 -8.2651362721604359e-003
      8.9046747242320281e-003 -1.6069407190855638e-002
      -1.2720032219229706e-002 -5.0302442424959501e-003
      6.2090323405726055e-003 -2.0267374546742420e-002
      2.1784855266914573e-002 1.5803555760004525e-002
      1.5534365478564109e-003 -6.8221719553847437e-003
      -3.9377580118009854e-002 -8.4377319203602398e-003
      -1.4876626579800191e-002 2.4547413317781781e-003
      1.1309130327925991e-002 -6.1249240090827176e-003
      -2.1294154665405535e-002 4.6245297674673896e-003
      1.4308329549147292e-002 3.2105577727518153e-002
      -6.0912499558991896e-003 -5.0306730012945333e-003
      1.0380422139259242e-002 7.8010102373732328e-003
      -3.2969183359649479e-003 2.8572823513084190e-002
      1.3142615457104243e-003 -9.6927530387087152e-003
      -5.5244717083099343e-005 4.7991884477284396e-003
      -2.2837993789154167e-002 5.4848460246552232e-002
      -1.3110121742514939e-002 3.3151620513333376e-002
      -2.3624157477624974e-002 -4.0202410443876131e-002
      1.0026690347246886e-001 -2.4560944993878325e-002
      -3.4051131354751685e-002 -1.3292235573367309e-004
      -4.3317368042743241e-002 -4.5416069546293056e-002
      -7.4420280625806107e-003 2.0705211256098539e-002
      2.8884881293003456e-002 1.5568577273953761e-002
      -2.1200403829663265e-002 3.7384194464783638e-002
      2.2371822381793294e-002 -1.6583086665479453e-002
      -6.6783170084863300e-002 1.3535252210680497e-002
      5.6265430624721863e-002 4.1645294343626592e-002
      -3.5351175850483335e-002 -1.0636829422822592e-002
      1.1462593994383959e-002 1.0151917257716690e-003
      5.4737897240528383e-002 -4.8511197772446321e-002
      7.2171351908017600e-002 -3.7182809855166907e-002
      -3.7718501698999207e-002 -3.5253326068769138e-002
      7.2090799731620817e-002 -4.5400505237234610e-005
      5.2207657020868943e-002 4.1580141147497453e-002
      1.4672568800162837e-002 -1.1833670717769262e-002
      3.6420272144322960e-002 4.1201352514613036e-002
      -5.6196751648665749e-002 2.9237982016172934e-002
      -9.1255987259940795e-003 9.5372525290045081e-003
      2.3174219707839977e-002 -3.4351663490181365e-002
      -1.9888003562932272e-002 -3.2217636768302180e-002
      -1.6884305254124841e-002 -1.2700137607619968e-002
      6.3340287689763368e-003 5.5234630098426789e-003
      4.5587026079705509e-002 -2.1194562116466167e-002
      1.0895373494055603e-001 -1.6884662705578726e-003
      5.2732771027272840e-003 -7.4137467156616104e-003
      1.5777014032924561e-002 -2.5228903774378204e-002
      -1.3346900296695847e-002 -5.7182512056390015e-002
      1.9973225552625616e-002 -8.4142551131032028e-003
      1.8250856591909094e-002 3.8966348459650628e-002
      2.3145010982512544e-002 8.0858210655104359e-002
      -2.8065886344229678e-002 4.9580870595088623e-002
      4.2474554384448922e-002 4.2186694064607434e-002
      2.9337679403205565e-003 -1.7870063230247625e-002
      -3.5205800333493319e-002 -6.4524919563982647e-003
      -2.7821646092984171e-002 -1.2597879553494259e-003
      2.8510656553487473e-002 2.9839683249337029e-002
      -4.0824139543843591e-002 5.4159483942215071e-002
      -1.2509352563861308e-002 3.8296532856804726e-002
      1.6433448558199029e-003 3.8213700146282566e-002
      8.8843750169358300e-004 2.4080113844378102e-002
      -1.4854165135244221e-002 -7.0254203058201625e-002
      2.9658677427607884e-002 1.9577961249492449e-002
      -4.0815195533131211e-002 4.4119262354861757e-002
      1.1922833883685629e-002 1.9464543803641609e-002
      2.1009199340024917e-002 -3.6131068241121493e-002
      -4.8429354184872382e-002 -3.8840150611879454e-002
      -3.9226643787169694e-003 -5.6728658145914317e-002
      3.7394512594521853e-002 1.5229325281176849e-002
      1.5541642164742389e-002 5.8727168690414742e-003
      -1.1310036273775732e-001 -4.9927303852399067e-002
      -3.6853022405461608e-002 -1.5749160602796564e-002
      5.5712626338571797e-002 -6.3824732171970391e-002
      -3.4357612371267519e-002 4.6631865627208766e-002
      3.4813004842797618e-002 9.9766483665487585e-002
      8.9580172983417371e-003 -6.2037150810782572e-002
      -2.8198839334741266e-002 2.8742065551441202e-002
      -3.1648278750807772e-002 9.1481941479758105e-002
      5.8940089579492014e-004 -6.0845163690589213e-003
      -1.8114928436165984e-002 -4.7329924703622631e-003
      -1.3365933479924324e-002 1.6513558113877776e-002
      4.3492509456659889e-003 1.6967456413421476e-002
      -1.4702985823434055e-002 -1.2366859440703332e-002
      4.6712931726263465e-002 9.0875548381122682e-003
      -2.6370523521654825e-003 4.1748807613430925e-003
      -5.2722735788445661e-003 -1.8993674312930434e-002
      -1.4235003805406326e-002 -9.6296934051007272e-003
      -2.7739391699560792e-003 -1.4696527552837142e-003
      -8.7451319787173725e-003 2.3141874207070090e-002
      -3.8047100349008871e-003 4.1905927522529205e-003
      -3.1497352665082329e-002 1.4779632324050133e-002
      2.6423680753656389e-002 1.6399332634613035e-002
      -3.9141275769800114e-003 3.7517715349032486e-004
      1.7638553400588862e-002 5.0440653043122207e-003
      2.5394451075807568e-003 -3.6691034715670229e-002
      2.3288039007074154e-002 5.9830848694226633e-004
      -5.1895763294128559e-003 -1.1482333818945372e-002
      3.3616383229147617e-002 -1.5762145603701191e-002
      2.9121771356094873e-002 1.0855506190196207e-002
      -1.4943150378283264e-005 -2.5763361637707507e-003
      2.7113650553101817e-002 7.7828797065171637e-003
      -9.9352405465453607e-003 1.8050000004727278e-002
      -1.1131172402771682e-002 -1.4221286895405073e-002
      2.2546050302636772e-003 -1.5058771709585771e-002
      -2.6723413464442257e-002 -1.3127516993490291e-002
      -1.8969222221218947e-002 6.1468616470947111e-003
      1.5796589912670984e-002 8.0805799137427942e-003
      2.7609781278809854e-002 -1.9323890744513149e-002
      6.2996309776903431e-002 5.3280093690231175e-003
      7.6178709115230720e-003 -1.1536783641708211e-002
      6.6592259193508085e-003 -2.5087368100929479e-002
      -5.6829325760967232e-003 -2.2325187964138717e-002
      -1.7109093225670423e-003 1.2534596941467975e-002
      -9.8596608568581288e-003 2.2762759810424655e-002
      4.2711153180663387e-003 1.0234632982892088e-002
      -2.2829793443872579e-002 1.6894441523451387e-003
      2.2091398200182112e-002 2.6152572743996103e-002
      -7.0525096449661022e-004 -1.9711156425232624e-002
      -1.9194578349306438e-002 6.2019442841682679e-003
      -3.5438098273349577e-003 6.4257072792364865e-003
      2.2189264146462728e-002 2.4615165844251299e-002
      -8.5952526847516764e-004 3.4032291879593821e-002
      1.1690898526833417e-002 6.5146573939740035e-004
      -1.0263929358224561e-003 1.7868706374148943e-002
      2.2647585824807906e-003 2.4058236222847472e-003
      8.6760499501239421e-004 -3.3106571355351173e-002
      2.0598815955858673e-002 -5.8338495423272997e-003
      -2.1668531681089814e-002 2.1320483364242152e-002
      8.7032787327509503e-003 -7.1405073429319443e-004
      -7.3991011420005970e-003 -2.2999304882817970e-002
      -9.7227676494800776e-003 -2.4029283349263679e-002
      1.3419701162941389e-002 -2.8218847080524613e-002
      -3.4653300766075435e-004 1.4532250210454059e-002
      -1.2234175740699529e-002 3.2357449044364988e-003
      -4.0167689139310091e-002 -2.4062355913800761e-002
      -1.7614768433639197e-002 4.6192336440153666e-003
      1.7780166572626033e-002 -3.7487406024911268e-002
      -1.3077393464249945e-002 1.8512801863834364e-002
      2.8161345129643717e-002 4.3098375036393695e-002
      1.0752774021402591e-002 -1.8301347016741507e-002
      6.5515290978972514e-003 -5.5706464053387342e-003
      -1.6029813505403903e-002 4.2907563699053526e-002
      7.5510965663229011e-004 -1.3373129560797729e-002
      -1.5305228303250347e-002 9.4364979202761091e-003
      -5.3961513249681384e-003 5.3493157676617496e-003
      3.2688895900215929e-003 1.3067708071643473e-002
      -1.2170558519328373e-002 -1.0261782388016307e-002
      -9.2560740897352865e-003 6.5643748269690527e-003
      1.2330091718537590e-002 1.4605142212037261e-002
      -1.1081459141774887e-002 3.5491437208026856e-003
      -1.2273546524540199e-002 -3.4583729933687687e-003
      1.3221808717505525e-002 -7.7096897859703795e-003
      -9.8752026895662873e-003 7.2010568784856132e-003
      -2.7248131058552503e-003 -7.9946828683085149e-003
      -7.9947497880028130e-003 1.0831613032373059e-003
      -1.2432801702073891e-002 -1.4368868440036669e-003
      3.0795580726817617e-003 7.0193401888552819e-003
      -8.3402883617635863e-004 8.1524736948106729e-003
      -1.2456215584370428e-002 -3.9213180304097355e-003
      -1.6345457232544467e-002 -2.2135954274998594e-003
      4.6610643192452608e-003 -5.5398080795917726e-003
      4.0886685890975981e-003 6.4704532482338373e-003
      -5.7034068331848296e-003 5.2715856261936096e-003
      -5.7281556461980928e-003 -4.8153024294180589e-003
      -1.8597075741508566e-003 -1.7217802055442877e-002
      6.0477515096875418e-003 -8.5605174947940739e-004
      9.5592056582311322e-003 9.5131734746581598e-003
      6.1429243814803362e-003 1.2299490845355462e-002
      -4.0506718335301013e-003 -3.9914125454009949e-003
      -1.1989958296135642e-002 8.9916692357501198e-003
      -1.0602339594183883e-002 5.1330307873790042e-003
      -1.8939625916846322e-003 5.3824346740343149e-005
      4.7654555037797272e-003 -2.0455800613785624e-003
      1.4349205660831678e-002 4.4474610652383301e-003
      -1.1530535977251833e-002 3.4002582059553853e-003
      -8.9985486188141825e-003 -2.5904592240357779e-004
      -3.8250777377099904e-003 -1.0234843202623242e-002
      -4.2717856732365639e-003 -1.7356311039843982e-002
      4.8983760122477508e-003 -4.0321865114304406e-003
      -1.4300941521615265e-003 -1.5870042275798163e-002
      -1.4006378635739558e-002 3.3778832876172390e-003
      5.1334649670785881e-003 5.3955250325609782e-003
      -1.2006245520757630e-002 -1.0802121466097667e-002
      6.8770217375822553e-003 -7.1377146288496866e-003
      -2.0981005305662544e-003 1.0417493297610122e-002
      7.7604737046272380e-003 -7.9582854237640818e-003
      4.3252817189041084e-003 9.3214051916448489e-003
      -1.2422037591547731e-002 3.7851738991662547e-003
      1.1210433000861379e-002 1.0099924620420838e-002
      -4.7706735096956724e-003 -1.0145572928167788e-002
      -1.2698059828751926e-002 1.0765705245019807e-002
      -1.8862849597083501e-003 2.5670983666808126e-004
      -1.2826462172908518e-002 -1.5437951887597745e-003
      -1.0283067994086265e-002 -2.6119427188134353e-003
      1.6708747634114098e-002 1.6054121503993182e-002
      -1.2362321876661380e-002 1.1777672121966056e-002
      4.3117293521323799e-003 -6.6221664419944580e-003
      -6.7375181402576636e-003 1.1432153482586353e-002
      9.8322806097496818e-003 1.2791167186603105e-002
      -1.2675182100339261e-002 -2.0982730896450044e-003
      -9.8143878737473392e-003 4.5841710701993591e-003
      3.7576636542183874e-003 2.3127602636497228e-003
      1.3470685752440271e-002 1.3894056172462383e-002
      -4.7281502977844815e-003 -9.9490262585299073e-003
      -3.2493287082395609e-003 -3.7675632053149315e-003
      -3.8594889647585386e-003 8.6993017194277478e-003
      -1.2175491325473832e-002 1.3450592895942309e-002
      4.2524595758697912e-003 -1.3768731996588172e-002
      -8.9860756920076851e-003 8.3439208967192868e-003
      -1.1751021324649627e-002 1.0218856131790070e-002
      4.7669803356481895e-003 6.2467711769787111e-003
      -9.1741908873159243e-004 8.6159877992592563e-003
      1.1062606788020103e-002 1.3936475795613960e-002
      -7.8022846577926336e-004 1.3827900161548437e-002
      6.0369070316091723e-004 -1.2170335045754975e-002
      -3.2490595191895159e-003 -1.4446600417354580e-002
      1.0770127296800198e-002 6.5289069822191612e-003
      -1.6273412719371928e-002 1.4995336424903913e-003
      1.1015227287822494e-002 5.7678235214151784e-003
      7.2396694548872266e-003 1.2696766082756595e-002
      7.6392442354398265e-005 -9.0601934785655269e-003
      -1.1364575895070408e-003 -1.2644088964921434e-002
      -5.7073143564205803e-003 6.5896042474509198e-003
      5.8880645497148649e-003 4.5511163952097254e-004
      -3.3135901762641768e-003 -1.7364898175053199e-003
      -1.9415535427856036e-002 -1.9110308261073880e-003
      9.2480932553592656e-003 -8.6712777826580042e-003
      -5.0810988873627632e-003 2.2724756961416282e-003
      -5.9823500861036006e-004 -1.7891231770261640e-002
      -5.4250167106975385e-003 -7.1835566243081015e-003
      -1.3104589864134321e-002 5.2264455951620452e-003
      5.6707267958389408e-003 3.6577216727111611e-003
      -4.3277723207255942e-003 1.7176945967254627e-003
      3.2865298959152186e-003 8.1549748603279137e-003
      1.1223094128362898e-002 1.0623600273843284e-002
      -1.8591896295037495e-002 -3.6892868812029365e-003
      -1.8883669886224175e-003 -6.1810427121344836e-003
      9.3341509058275098e-004 -5.1997125682513154e-003
      3.1337765073733300e-003 2.0450101645643642e-003
      -1.4142701916322737e-002 1.1767669101146171e-002
      -1.5936705841628452e-003 -2.6397238837665535e-003
      -6.1716234261077899e-003 -5.2977814588633255e-003
      -1.4140755372139845e-002 -9.4452634957341679e-003
      -9.9515651986368438e-003 -9.2591221083973972e-005
      -6.1449829744909916e-003 -1.2326331181939786e-002
      -1.2654947311710081e-002 -4.1768688782268821e-003
      7.8484737235363210e-003 -9.6988922408300317e-004
      1.5893629850352291e-002 1.0545909691087801e-002
      1.0185759768318850e-002 -1.3387091429230939e-002
      -2.6878984252220626e-003 1.2581541120611467e-002
      -3.2815197363878605e-003 -6.4163132320024336e-003
      7.5720828497880966e-003 1.1544950494462785e-002
      1.9861077082241802e-003 3.5029440641378182e-004
      -1.3166103212597787e-002 -9.9564970251197534e-003
      -1.2948040425394822e-003 3.1652069495879541e-003
      1.7995225837698352e-002 -6.0140334076031355e-003
      4.9469219376162468e-003 -6.2521473219671843e-003
      -7.8748921569479335e-004 2.3940665033851134e-003
      -7.7935401025298504e-005 9.7014904178684865e-003
      -3.8149359862372206e-003 8.1215400286777078e-003
      1.4275654847870983e-003 -8.7160200405542437e-003
      3.8761816847647157e-003 9.2147058298232189e-003
      1.8823819856193719e-002 -7.6884778551938142e-003
      -9.3502829033374826e-003 6.0373449535943017e-003
      -9.9145328712603488e-003 1.6512425607270859e-002
      -5.7449773619239137e-003 -1.3103793562116790e-002
      -4.8076060776283168e-003 -8.6559530365579451e-003
      -7.8485150946096278e-003 1.5745442552474048e-002
      4.2309315772029232e-004 -2.3367941581099202e-003
      -9.5927204597406682e-003 -6.1300723422713912e-003
      1.9972831266173862e-003 -5.8055894437742230e-003
      3.3892328725681933e-003 1.4928615162873386e-002
      -1.3365406256984298e-002 1.4380117397978376e-002
      6.0627335287046955e-004 1.4351842157846241e-004
      3.9727018454057640e-003 -1.1322884951549619e-002
      5.1488837610010538e-002 -1.0765802312370457e-002
      9.4915832823269132e-004 -1.3073951971008722e-002
      -6.0640551967919504e-003 -1.6737414306910076e-002
      -3.3141400281948732e-003 -8.0221187729759714e-003
      5.3486036001842996e-004 1.6269005258601806e-002
      -2.7873019143246011e-002 2.7051654560952147e-002
      -5.0510662432743554e-003 -1.2288688309148390e-002
      -3.0768474030788955e-002 -2.5459844532177305e-003
      2.3388751187892586e-002 2.9752706485485399e-003
      -2.2994663948115234e-002 -6.9268578450164551e-003
      1.8886698974379301e-003 -8.2743180914854834e-003
      3.3176758827707473e-002 -1.9543949657475166e-002
      4.1057667895494643e-002 -2.1881349430524531e-002
      -8.4485916056456604e-003 -7.9830788568191289e-003
      4.5956140935410936e-002 3.3683992675430491e-003
      1.4325939708704940e-002 2.6423118909474075e-002
      -8.1426157952594162e-003 1.9524532913524396e-003
      2.6947063440721071e-002 3.0542725588605987e-002
      -4.0556965494750956e-002 2.4749186378374487e-002
      9.6981531372099337e-003 5.5545389992075816e-003
      1.0953531783829091e-002 -1.7550597051672299e-002
      -6.0769069382699756e-003 -2.9189100558132210e-002
      1.2624540033716783e-002 9.3723252503622369e-003
      1.5541347671407862e-002 2.3304731703624793e-003
      3.1844211638901353e-002 -1.8856520744906288e-003
      6.1434953291802374e-002 -1.6585173604870919e-002
      9.1904231288124638e-003 -6.0223917468059185e-003
      1.5402640434374238e-002 -1.1198012183685147e-002
      -2.2164592089008863e-002 -2.6085838517386401e-002
      -8.3884854727713891e-003 1.1911081385885135e-002
      -6.2211485171423224e-004 2.6073881155507291e-002
      2.1680815534660856e-002 1.2705439571377061e-002
      -1.9172498195750565e-002 5.0921569729428335e-003
      3.6693539843330583e-002 2.9910449165840132e-002
      -9.3970454897738555e-004 -1.3679777765590446e-002
      -1.3798625775019989e-002 -2.2308018513793468e-002
      -1.0869485030672773e-002 -7.8275095033238738e-003
      1.0497042413828372e-002 2.6603808907553195e-002
      -3.0404305695255540e-002 1.1557560466490193e-002
      -2.6373995250065416e-003 2.2619721302002339e-002
      -4.9796627094553184e-003 1.2485342789440071e-002
      -1.4103781815394709e-002 5.0422393391047230e-003
      -7.4890293245312555e-003 -2.2595027111452969e-002
      2.3972493745958567e-002 9.7591031760933689e-003
      -1.7327887406670957e-002 2.4144031101417038e-002
      -1.0812491115428728e-002 1.3443461865978787e-002
      1.9137126836398791e-002 -1.9865726427188798e-002
      -2.1421106728936420e-002 -2.1633028594327655e-002
      -7.9139574700653852e-003 -1.7700364800003084e-002
      1.7702276563006176e-002 -6.2684091141469150e-003
      -1.0246435032163983e-002 1.5554234686857463e-002
      -5.6964639287588818e-002 -1.2488694907814150e-002
      -2.4928011758597338e-002 -5.0106061137181581e-003
      3.6330741676026471e-002 -1.4374139437042207e-002
      -4.1848915929663388e-003 2.4124133301928873e-002
      3.4083568374893916e-002 6.6722873750617515e-002
      1.3168114394792140e-002 -2.4222784571873004e-002
      4.8244748032467656e-003 1.4005537928738349e-002
      -1.1750051855469476e-003 4.7475315068411780e-002
      6.9654745117620123e-003 1.2035662688316606e-002
      -1.2924750261198209e-002 -1.0154852108661704e-002
      -2.4021119113817146e-003 1.0314601384584850e-002
      -6.0918008591676724e-003 9.0928667856665136e-004
      3.8461314476252117e-003 8.3818378918108175e-004
      3.3621305712507633e-002 -1.2814980117931115e-002
      -1.1402744998045724e-002 -1.4277770688341062e-002
      -1.6023716543425305e-002 -2.2988702668672784e-002
      -8.3789471411760113e-003 2.0614362697561218e-003
      -8.1850584151850567e-003 9.7219262165239989e-003
      -3.2702447964868386e-003 2.1814009266168536e-003
      1.5544633356641208e-002 -1.1406216265374122e-002
      -8.7795518017033270e-003 -1.4946403234463105e-003
      1.1174608116581847e-002 2.1166372933455403e-003
      -1.2264247513111318e-002 -1.1776604490577172e-002
      -1.8165466688735980e-003 -1.6495341642586954e-003
      7.9808478610141759e-004 2.9438358363110856e-004
      1.0498681182989486e-002 9.6396942163310267e-003
      4.2941400100276646e-003 2.7905729498085567e-003
      2.9847743805110141e-002 -1.0998901827432888e-002
      1.6682160570691988e-002 -2.8590402322890033e-003
      -1.2840663270510788e-002 -2.7619294962988586e-003
      -3.6803388655205780e-003 5.0896657289434283e-003
      -6.2645986205751994e-003 5.4270391497218311e-003
      -4.2649467396454121e-003 7.6260021445989697e-003
      -1.0805512979694730e-002 -2.3216296511177025e-002
      -6.7365617827471937e-003 -5.5811410670014942e-003
      -2.3074734106817321e-003 -1.2646320315586561e-002
      1.3809647202687540e-002 4.1220671941956432e-003
      8.6245039123016634e-003 -1.6695684041574517e-002
      4.3673116941887989e-002 -1.1777332207086827e-002
      3.2979405483785132e-003 2.5554252260977001e-003
      -9.6790865084584368e-003 5.6060344215435850e-003
      -4.0496655579060677e-003 -2.0315061714899229e-002
      -5.7112599397183411e-003 7.8817883651142572e-003
      1.4585782530238818e-002 -1.2487916312858081e-003
      -5.2300467958700152e-003 7.3944082652292126e-003
      -1.9553443333322307e-003 1.7326708182244892e-002
      2.2034104630063648e-003 8.7259495115220489e-003
      1.2636281181954341e-003 -1.1089493679793942e-002
      -2.1198326961988593e-003 -5.6037962754494249e-003
      -1.1044417939533124e-002 1.2961694711473654e-002
      -2.7126411228503518e-004 5.0287634554301106e-003
      -4.2638092944336037e-003 -3.5349355778202364e-003
      -1.2964999056802724e-002 1.7821846609725078e-002
      8.9273548976197045e-003 -1.0739899800183899e-002
      1.1586395891783903e-002 -1.1497456091779343e-004
      1.3532154271501964e-003 -3.1881131120769768e-003
      1.3514583341966620e-002 -9.4155624466954503e-003
      6.1133382019780439e-003 5.9537732754017794e-003
      7.9828190087409389e-003 -1.1082968624367948e-002
      1.3409963778110731e-002 3.1874147489968688e-003
      -1.3909305119086755e-002 -2.4664371651744382e-002
      1.5709234825144459e-002 -1.4136177261399088e-002
      1.3837819381976754e-002 2.5496802250762657e-003
      6.4916859025039358e-003 1.5545860537340365e-002
      -4.7495254029750071e-002 3.7028537948582928e-003
      -1.2226746280592775e-002 -1.4376698247387003e-002
      4.5346041201056453e-003 -1.0740957215861643e-002
      -6.2561801721698349e-003 1.7078747111276854e-002
      -6.5655820467879693e-004 1.6024736819008532e-002
      7.8735794127719368e-003 2.2456507775472983e-003
      -1.6532909081046817e-002 2.7877924849009470e-003
      -1.8332178009774464e-002 4.3736595756615022e-003
      8.8224207507142031e-004 1.0318208967210633e-002
      -1.9394112748307709e-002 -1.6071979329619558e-003
      -4.9436604164718734e-003 1.4390811194673336e-002
      1.1436914285251615e-002 4.9221887065502186e-003
      8.1552826041403712e-003 1.5814505181674040e-002
      1.6001240034017969e-002 1.3682606497693940e-002
      -1.0264254390136078e-002 -4.3547614815215106e-003
      -2.4421490528105847e-003 5.4560810168690511e-003
      1.1244212506648510e-002 9.5505900971740495e-003
      -3.9417250814434111e-003 -1.5935669869060305e-003
      -1.0880843207521326e-002 -3.2726817055398561e-003
      -5.4938035487002027e-003 -2.3990496131776830e-003
      1.4132052878066159e-002 1.1720798015178830e-002
      7.6117367950140217e-003 4.0873962364931728e-004
      3.1254369651354070e-003 1.3299271637562572e-002
      1.4957154979479486e-002 4.4360454930507569e-003
      9.3165638286436744e-003 -1.3098316468203263e-002
      8.4014671294128929e-003 1.2064647507572172e-003
      1.5648577989567817e-002 -4.7151005780452782e-003
      3.2828349237552438e-003 4.8442032847846039e-003
      1.3067270236127896e-002 1.1047905201149247e-002
      -1.1187705287391374e-002 1.0055293495396172e-002
      5.3013699322305308e-003 -1.6771595196994556e-002
      1.2147931882985482e-002 4.1357098130299563e-003
      -2.9943552471062996e-003 1.2327939988049562e-002
      -1.7016411320254384e-002 1.0177928865104573e-003
      -6.3435489121831711e-003 8.0280826307637678e-004
      -7.9947975068303777e-003 9.8629632626290389e-003
      -1.6941437273853346e-002 -1.4068419056913876e-003
      2.5576519182976929e-003 4.0436357834286131e-003
      2.5823208876114074e-002 -2.5437370784189353e-003
      7.9944202224672672e-003 -1.2398589815832629e-002
      -1.4316824796999016e-002 1.5153882157159678e-002
      6.9574194295693621e-003 -1.0538219055827948e-002
      1.7291036317048133e-002 7.4404315218169967e-003
      1.5740966052296603e-002 7.5125338520601204e-003
      -1.1969079067562435e-002 -3.0660487386771958e-003
      -1.1797178522956939e-003 -4.4686955501181311e-004
      -1.4944005250921173e-002 1.0645634369526692e-002
      8.0644009879386781e-003 -8.8213223975414038e-003
      8.3089744495632722e-003 -3.6021581300415329e-003
      -2.5162733134263776e-003 -1.3817324900605017e-002
      1.2929025761618735e-002 1.6778319257508442e-002
      -3.4445865146344699e-003 1.3700810636248071e-002
      1.3618600320076840e-002 4.1368428301606129e-003
      -6.1319458798727916e-003 7.9992551107407601e-004
      1.1110040860637721e-002 -1.4530069048333497e-002
      5.9020320252392029e-003 7.1849449894220846e-003
      3.5305250069261650e-003 -8.2599815386935112e-003
      -1.3508276963936574e-002 8.9005888451113846e-003
      7.1892244173887166e-003 -4.1816096332618060e-003
      6.5634963989694836e-003 1.7526548042488221e-002
      1.2230058785458726e-002 -5.1825732377940859e-003
      1.0118511672578396e-002 -1.2194301267096299e-002
      -8.1231974822204393e-003 1.2026153347171865e-002
      -9.9186623812832150e-003 -9.7119878763280744e-003
      -1.9799241430737746e-002 -1.1557152816116397e-003
      -2.7886063200634111e-004 3.2427838202280018e-003
      1.0848792009978682e-002 8.3030903404193879e-003
      -1.3585611720282949e-002 -5.8192641206287416e-003
      8.8203169946166823e-003 1.5823779758810684e-002
      -1.3137227816385256e-002 5.9553159032330310e-003
      1.4731132014710140e-002 -1.6456429643163576e-003
      -5.9500023952286062e-003 6.3466024465169630e-003
      -9.5487986249035463e-003 5.7507566404411360e-003
      -5.0881753476772528e-003 1.1484584980496607e-002
      -8.0615357136577630e-003 2.2586577175096760e-002
      8.9882185406951771e-003 6.8366568720705121e-004
      -1.4607876459784964e-002 -2.4377565254507148e-002
      3.6321076565833332e-002 -6.4887855927776806e-003
      -4.6260732523429847e-003 4.5220741482304754e-004
      -1.6462233522591085e-002 -3.5295515534384653e-003
      -3.4721625476790861e-003 1.3509391241396012e-002
      1.4710084993943422e-002 -5.2443147023124581e-003
      -2.7944139725634008e-002 -6.2875714675515691e-003
      1.4558309545741012e-002 -4.6696040267838242e-003
      -3.0742930977239263e-002 1.3043733028980596e-002
      1.7725445054795619e-002 3.0484172411330362e-002
      -1.4506664844105149e-002 -1.8350982502867489e-002
      -7.0044452595839982e-003 1.1561996273270259e-003
      1.1137301398943936e-002 -2.1474824646870661e-002
      3.4897453260138628e-002 -2.3138695678952090e-002
      -2.1778076918902788e-002 -8.3668596577923006e-003
      2.6192196145575088e-002 -1.6305109883819287e-002
      1.6513490761841710e-003 2.3450083131117713e-003
      6.0848655329092472e-003 -2.2667857028894733e-002
      7.5942404112474609e-003 1.9400540019291587e-002
      -2.1453258682533432e-002 5.5380108630197081e-003
      7.5988212868944539e-003 -8.7191434215200640e-003
      1.2653933917241733e-002 -4.3705240464536671e-003
      3.6893205965940162e-003 -2.4141161714883119e-002
      -1.6163454607048398e-002 -5.7964998336329432e-003
      8.4030706594062626e-003 -6.8592778787018192e-003
      2.3132464842063362e-002 -1.7248197622604284e-002
      4.5832823588938899e-002 1.1369882422076755e-002
      -7.6218174980541608e-003 6.9578831421024018e-005
      6.2746744701575718e-003 -1.3745707846701120e-002
      -1.9366511367104391e-002 -1.6201041810340933e-002
      -9.6369812483898250e-004 8.5036300214881740e-003
      1.8032017558649954e-002 3.0453643465838429e-002
      8.1622892779212933e-003 3.9340644594422131e-002
      -2.3820023212315425e-002 1.6415485770063406e-002
      4.1458758003864293e-003 1.4643745354549213e-002
      1.5544093462570813e-003 -1.5284507529263825e-002
      -2.3908943001733830e-002 -7.9409193095411456e-003
      -6.4214785278907038e-003 -1.2024654224601286e-002
      1.6128129268789648e-002 1.7746579232596121e-002
      2.0982373915179754e-003 1.5964525212775492e-002
      1.5223289812498608e-003 9.1207417698249346e-003
      -3.5678894498250716e-003 5.7368772564921240e-004
      -5.4504358575630301e-003 -2.1761446699158182e-003
      -4.1275176730770054e-003 -1.0653009628185354e-002
      6.1789438280342385e-003 -5.6540388459645069e-003
      -1.7448616864318953e-002 7.3948412486697594e-003
      -2.4679781632407729e-003 4.5906958091699252e-003
      6.5546434636353538e-003 -1.1738982728980172e-002
      -2.6953916472082121e-002 -9.5787825287698500e-003
      1.4213938205601486e-002 -2.5488185336860345e-002
      1.1416168910996307e-002 -1.2964421160136356e-002
      1.4825170595743004e-002 1.8995298459265316e-003
      -5.7449896548397043e-002 -2.3781916646644027e-002
      -1.8788771509455654e-002 -5.6401520357574212e-003
      1.7446738959804212e-002 -2.4197341160952176e-002
      -8.5211265376897178e-003 2.7971431986460814e-002
      1.6888174480267127e-002 4.3235007953746706e-002
      -8.5193971019058776e-003 -2.1379843188166350e-002
      -4.8839259140567338e-003 1.6882127785556249e-002
      -5.6909885551850248e-004 2.2818314707466116e-002
      -2.8139741739606986e-003 -5.5619905612287984e-004
      -1.6051046275885585e-002 1.1831050821744649e-002
      7.5463997435670071e-003 1.4708080514901198e-002
      -2.6646547985621706e-003 7.7271431133207665e-003
      9.5846894734307811e-003 -1.2590084254087825e-002
      3.0304989012871025e-002 4.6092799890343761e-003
      9.1378210544122845e-003 -9.1136863383086478e-003
      5.1323788402066863e-003 -9.3113600352011527e-005
      -9.0997352662846470e-004 1.2121026322662610e-002
      1.6457110071952712e-002 1.5489614415758694e-003
      -9.7703743789301378e-004 1.7673650354936989e-002
      -1.0706354438941900e-003 4.4392933431989801e-003
      -1.5695590351560131e-002 -1.0039696473554760e-002
      1.9414777236812602e-002 7.8234203404615283e-004
      9.6898724137022951e-003 4.5964344754237914e-003
      -1.1262915653607474e-002 -1.0404370001398973e-002
      1.1568283588755279e-002 -1.4384884134786826e-002
      2.2029569111300905e-002 -1.5088366101747668e-002
      5.6941546019432104e-003 3.0696982295691133e-003
      9.6244831306050264e-003 -5.2059365546095826e-003
      1.2116495845323032e-002 1.0198871514661742e-002
      -1.6262710661381439e-002 -3.2553999281581319e-003
      -1.8825577507548023e-003 -1.5448106908081160e-003
      -1.2427633946401171e-002 1.6807309227524221e-002
      -5.7669500577290428e-003 -1.0130467135671280e-002
      -2.6197641646121938e-003 -3.7209966979114550e-003
      -9.6002247232114622e-003 -3.3671068486208081e-003
      -1.0826916809197474e-002 -1.3770782894560886e-002
      -2.9570109876374132e-003 -9.2552635767072424e-003
      1.8978091875597451e-002 -7.4384050012732466e-003
      2.9429218717795261e-002 -1.3287282643187468e-002
      -2.1525292139682771e-004 -1.0669662884566064e-002
      1.1873585632786876e-002 3.3015530507516898e-003
      -6.2333003821574389e-004 7.4346579942515768e-003
      -6.2031292381309437e-003 -9.4408179460418740e-003
      1.6528339853343718e-002 -1.0013884646608798e-003
      1.3057630584825623e-002 4.6124006698745014e-003
      -1.3183107071179959e-002 1.2076859840723582e-002
      -8.0656682241765053e-003 8.1161178777885788e-003
      7.6199287917446288e-003 8.0715233873384848e-004
      -1.6153885381660065e-003 9.5041144937839956e-003
      -1.7427228524958559e-002 3.5550022091368969e-003
      1.6232977851191190e-002 -5.9400167841855795e-003
      -1.9503707685711944e-002 1.6710724783602367e-002
      1.4642333571933860e-004 3.4391469200110527e-003
      1.1607688616290092e-002 1.6254257549696573e-003
      -1.1129004655405927e-002 1.8497769863849486e-002
      7.0016738202683670e-003 3.5726349269324576e-004
      9.6191167280687169e-003 1.3533902015785387e-002
      -1.9606520333704722e-002 1.1444632505586362e-002
      1.4347886157354396e-002 -8.6868356589107866e-004
      -8.1543832764018088e-003 9.4793503123189893e-003
      -1.9066235490687193e-002 -1.7636967005734000e-002
      -8.4427806542066476e-003 -1.0190048121726972e-002
      -5.5344082795972232e-003 2.8697610124864449e-004
      -4.5195634307244725e-003 8.7910477760823197e-003
      -3.0380900651499117e-002 -4.0128844558753908e-003
      -1.6684000922153826e-002 -5.8633041423042896e-004
      1.0842014761119739e-002 -1.4592730302666142e-002
      -2.1486767123071854e-003 1.9148477154204871e-003
      8.9906488801742429e-003 3.2543770511345507e-002
      -1.3461103340198068e-002 -8.5927683211178812e-003
      -9.8853516046610457e-003 7.0174473253275565e-006
      8.8169177145134524e-003 2.1998549212156458e-002
      1.0296400292214999e-002 2.9847724205506912e-003
      5.2422838479842756e-004 -1.4609232632567878e-002
      -6.7519712711850768e-003 1.2358883090365725e-002
      3.8205506541136979e-003 -4.6730130849878754e-003
      -1.2830244304556990e-002 -1.6854418423985136e-003
      1.1385554023040130e-002 5.4663373701571115e-003
      -1.2761581911074668e-002 2.9911299551426311e-003
      3.8971094623404942e-003 8.8752501802284757e-003
      1.3888485176449667e-004 3.6315157631218713e-004
      -3.8505075399364944e-003 -1.0332761163654770e-002
      -1.2942402911150057e-002 -5.3705195411959030e-003
      -6.5165835643019327e-003 6.1175694479656982e-003
      9.8122866730894157e-003 -9.0671559452189026e-004
      -4.6214619516348328e-004 7.6815151020996064e-003
      -5.6159630515369187e-003 1.8250814048505679e-002
      3.8491464634861552e-003 -3.3544357283746742e-003
      8.0889175503146807e-004 1.3434639280907176e-002
      -4.8923612582159708e-003 1.3658649319349684e-002
      -5.5824942070665908e-003 1.1081020781977735e-002
      -1.3128268795194836e-002 8.7533248938888551e-003
      1.0070146248133689e-002 -1.7128622846982154e-002
      -3.2529416699857636e-003 1.4682583434691346e-002
      5.3133891410238106e-003 -4.2608690463258889e-003
      -8.5775470490984801e-003 7.1756727129176261e-003
      -1.0958971965545352e-002 -3.2721202318976355e-003
      -1.6172848575326704e-003 -2.9773304307520497e-003
      5.0210270791034182e-003 1.3681624937009459e-002
      1.8355120983439589e-002 -5.4808637955448877e-003
      8.8199372789758979e-003 -3.4149320869341152e-003
      2.9086232890872103e-003 -1.6327571929873699e-003
      1.5750233725623734e-002 2.9763334849704616e-003
      -2.6990654946575719e-003 -4.3692839331261907e-003
      -1.1629359091134515e-002 1.3364980989376926e-002
      -8.6610097757100248e-003 1.1722080379534585e-002
      2.2101381766207440e-003 8.4340409190540450e-003
      -4.6474144280180471e-003 5.3184163627852219e-005
      -3.1738561522998685e-003 -1.4372743070436728e-002
      -6.1127636777564389e-003 -1.2221946326960683e-002
      -4.0655392169207600e-003 -1.7531175063091008e-002
      -7.9793568746745983e-003 -9.6218986286431985e-003
      -9.3746972616408578e-003 2.9322487516227980e-003
      1.3931560664269715e-002 -7.3403334074572677e-003
      -1.5708952721374646e-002 1.5561511846005774e-003
      6.6957223659652612e-004 2.6057195017007433e-003
      5.9980018712630628e-003 -1.9108538811305444e-002
      -2.4573865767262893e-003 3.6639589589113384e-004
      -9.5315560952003461e-004 2.2049770855991193e-003
      -3.5409379429990184e-003 7.6593254964571192e-003
      6.5127171876201602e-003 -1.3540763018092039e-002
      4.0908302363809315e-003 3.9940414982724860e-003
      -1.5970956397109073e-002 1.0091235419373609e-003
      5.3024331532677341e-003 -3.7560181790223975e-003
      -8.0094578059037753e-003 1.7390105650146682e-002
      4.3682097621241273e-003 4.2662053013769654e-003
      -8.3311005694034490e-003 8.8002809453364347e-003
      -1.5865366253762475e-002 -4.9228976084587598e-003
      -8.3023208683314139e-003 -7.9846817402351410e-003
      -4.0208767238165575e-004 1.3412936593617976e-002
      -3.0530775342247664e-004 -4.8269607695095446e-003
      -7.8442903722566060e-003 -4.2165579140675622e-003
      -6.5517785464590528e-003 -3.4906265531591324e-003
      -4.7870754015257354e-003 -6.2504241883644725e-003
      -6.2447487709425247e-003 3.3131956899045282e-003
      1.1915656976414142e-002 6.9279979166495548e-003
      -1.2639798274407237e-003 2.2367204257712708e-004
      -1.2546385825321700e-002 1.2658607222027791e-002
      -7.9619383751139104e-003 2.9990544213501748e-002
      -1.3773556142168339e-002 3.8955740642116158e-003
      -7.5078021303455270e-003 -3.7363675263444407e-003
      4.0109514766826670e-002 8.3001187282117674e-003
      2.0960248947544252e-003 5.0287258057629750e-003
      2.5709213204837440e-003 -2.6051012621196360e-002
      -2.5563899955778542e-003 1.6096770454994479e-002
      2.1983992688255370e-002 1.1040868382044456e-002
      -2.1608331769345988e-002 7.6890493437265540e-003
      -9.2902876784666504e-003 -4.6235131924537249e-003
      -2.8077529193577380e-002 1.9922229198674986e-002
      8.2385099991214728e-003 2.2142084309424256e-002
      -2.3956249629049314e-003 5.7428661205874974e-004
      1.0582835993658035e-002 1.3798424811860150e-002
      7.2390706187738440e-003 -2.0490512384593314e-002
      1.7529992382368204e-002 -2.0405123656490793e-002
      6.5857057101417361e-003 1.1268766282267380e-003
      2.4076405044283062e-002 1.1689239708420538e-003
      2.4126553876944019e-002 2.0065793776287505e-002
      1.4693408946758916e-002 -1.7015094617606735e-002
      2.2290835869549899e-002 2.6219289862060964e-002
      -6.9855642534427352e-003 9.9137942135148482e-003
      -2.2902996259400931e-003 -6.2107662916067582e-003
      -1.1499797813669358e-002 -1.0285591668112291e-002
      -2.3494069293584090e-002 -2.6430480976594069e-002
      -1.0524403148605256e-002 -1.5940700605652084e-003
      1.1456007487209676e-002 1.1520065383853473e-002
      1.3602921033580413e-002 -6.0395528552946980e-003
      5.3376578963664267e-002 -1.0009692779698667e-002
      -2.3424625982183594e-003 -4.4809597796396086e-003
      -3.4496123605854698e-003 -2.2231768672446764e-002
      -2.1731729549839523e-002 -2.8338916188097935e-002
      -1.0446050643249162e-002 -1.0249856083845139e-002
      -2.8562037728360030e-003 1.2968341380315464e-002
      1.6006901134426210e-002 8.6938845623052638e-003
      -1.6698882631515239e-004 1.8112636420208370e-002
      3.2788613686680214e-002 3.2584451143278061e-004
      1.7627739318032479e-002 -1.8924522321932240e-002
      -1.3350915745965820e-002 4.6889194583890192e-003
      -1.4342118770690769e-002 5.2373955006455950e-003
      2.5688495734552813e-004 1.6846932029056245e-002
      -7.4539854029405123e-003 2.3948139827718477e-002
      -2.1944109397715331e-003 -7.2559894287786428e-003
      -5.9587794315791795e-003 1.6676488193530181e-002
      3.3904559336321678e-003 5.4302307717831984e-003
      -1.1309369020250206e-002 -7.6543839792769588e-003
      2.1818476525460737e-002 1.1826508755446573e-002
      -6.3248348013715226e-003 5.3397771350700458e-003
      -1.3426755920957920e-002 9.3210502028638932e-003
      2.1977228192099278e-003 -1.1636040365352021e-002
      -3.1736447003104899e-002 -2.2041766685626128e-003
      7.7153083535758610e-003 -2.6886150203377451e-002
      1.4141115382206314e-002 4.0305959682055640e-003
      -9.1624701179069332e-003 2.1831865386951984e-003
      -4.5338799912300318e-002 -1.9870676191923640e-002
      1.0327241049091745e-003 -1.3982689327433689e-002
      1.6294177913670875e-002 -1.7939652104574037e-002
      -1.3308300194835147e-002 2.2020764904966642e-002
      2.9568307662680583e-002 2.9907973039053685e-002
      3.4121158831276698e-003 -2.1503119302712245e-002
      8.4475420869303663e-003 1.8565331531556862e-002
      3.4497989931129738e-003 3.2628160983937587e-002
      -1.2283536563709271e-002 -3.3879699205593620e-003
      -2.3160023104441697e-003 -1.3689465558489950e-002
      -1.4231938028490036e-002 1.1078276261517795e-002
      -3.2464125375274953e-003 1.3082725323831567e-002
      9.7723694481684900e-005 -1.6075198744340033e-002
      1.9313235533317753e-002 -4.7288905292796248e-003
      2.2961727292778632e-004 -9.3794928583565453e-003
      -1.4864529508885492e-002 -5.9515940592599972e-003
      2.6368321326208431e-003 1.1946874833017530e-002
      1.2059904677822125e-002 -2.7326834351531844e-003
      -1.9279620343886087e-002 2.0696730110089791e-002
      -7.1716081470896090e-003 -1.4398842021167072e-002
      -2.4241439844002021e-002 -7.6390372768572355e-003
      1.1398691515182835e-002 2.2798132322757791e-002
      -1.7939116163714297e-002 -1.3211653298890782e-002
      1.6386902998389335e-002 2.3615557279900044e-004
      1.3941730036979200e-002 -1.8281986869471602e-002
      3.6983125766074381e-003 -1.4606176361344415e-002
      -4.5320671344803399e-004 -1.6870975521615799e-002
      8.6795930354046751e-003 1.0071449832973346e-002
      2.2653192847982482e-002 1.8119316531041318e-002
      1.4919305579325725e-002 -3.6562069376726430e-003
      6.3780820992767788e-003 1.4679602224137485e-002
      -4.7148092315267296e-003 -1.7269240160226379e-004
      1.5831961920590297e-003 3.2033165391146456e-003
      1.6469812492528900e-002 -2.3787928689839474e-002
      -9.3653806657956612e-003 -1.7584212139341814e-002
      7.9080283106379035e-003 -1.0799974165972739e-002
      -5.1196668455947029e-003 -5.4858960521833641e-003
      1.4946414827914103e-002 1.8230166089278342e-003
      2.8804667077085164e-002 4.2803606238103475e-003
      -1.0120903084882625e-003 -3.3742877625110436e-003
      1.2875333819478085e-002 -1.8309049120712701e-002
      8.6959341443910605e-003 6.2057831263637154e-004
      -1.1165683434389419e-003 1.0347016356322040e-002
      -1.1257545076894651e-002 2.9768970935906453e-003
      3.0893794581576179e-003 2.3228813729392190e-002
      1.6094569789570465e-003 -1.2275630095345052e-003
      2.9691929857578306e-002 1.6648242411269176e-002
      1.4140415571395960e-002 -1.7794166046255062e-002
      1.3490896740142411e-003 -1.7141286524321165e-002
      -5.3153203868695493e-004 1.2719966300217900e-002
      2.4377258838293978e-002 2.6922774682475444e-002
      -2.1474109881707081e-002 -3.1929501565123694e-003
      -7.4798711118835961e-003 2.1695420933536970e-002
      -6.0654999927455960e-003 7.9927730004748111e-003
      -1.7673199110330617e-002 1.2475897201079255e-002
      7.8265599284826524e-004 -1.8288309163340861e-002
      1.8629545957802002e-002 2.9233214178476814e-003
      -1.2112291986958460e-002 1.3542896205249702e-003
      1.0830804822118218e-003 -4.4565477600163840e-003
      1.5838127665431957e-002 -7.6535171238888084e-003
      -1.8554220628399988e-002 2.4373715437257032e-003
      9.4360347336826210e-003 -2.3440047814686968e-003
      3.5129120598127866e-003 6.9738438160296600e-003
      1.0434671492790341e-002 -1.7235039216852621e-003
      -4.5239605346701607e-002 -1.1995381076769718e-002
      -1.3661304246369476e-002 -4.9764103489464201e-003
      1.8080344450462388e-002 -2.2821260918041788e-002
      2.7564411700208738e-003 7.3596992119082669e-003
      1.8297274433729121e-002 3.8599354643212257e-002
      9.3843796206342298e-003 -2.6325887039732473e-002
      -1.8150985196717529e-002 9.0331777455735299e-003
      -4.8683606640167274e-003 1.6165419153695616e-002
      -1.5327359983173637e-002 6.3881494543677709e-003
      -1.4913284440980607e-002 -9.9912647356868965e-003
      8.1749786870191250e-003 2.4055115620600382e-002
      -1.1990313842489084e-002 9.2647665050416012e-003
      -1.5032435186259702e-002 -2.0146247360694567e-002
      2.3906610130731587e-002 2.2528896355421897e-003
      4.4069401752727822e-003 6.7754315878350334e-003
      -1.5306622897376495e-002 -1.4465343168203020e-002
      1.1488556330679462e-002 2.9774262943168006e-003
      9.4181532467729756e-004 -2.6381947807215711e-003
      -1.3982390561837874e-002 4.9540267434268559e-003
      7.4390448240951286e-003 2.6575957939847590e-003
      -7.3767631886472737e-003 -3.9872929706042705e-003
      1.1356580087124172e-002 -3.9717092895199379e-003
      -9.6299381556231283e-003 -3.9574291093095841e-003
      -1.7294258334887909e-002 6.8162041430697307e-003
      3.7098956801985120e-003 -7.8789994330502443e-003
      -9.2427759353909560e-005 2.6983820863624137e-004
      9.3013732389916181e-003 -1.0485372936054100e-002
      1.2685875087543246e-002 -3.1877563230176425e-003
      1.4975693306676925e-003 3.7943747972932762e-003
      1.0572181121423227e-003 -7.3602400633825211e-003
      -1.6528025242781011e-003 -8.7760516965863285e-003
      -1.7379120617464560e-002 4.9055121045966741e-003
      -1.1105141353003545e-002 7.8863349531616521e-003
      -5.4727496310190277e-003 -1.8140678085364192e-002
      -9.6003500378822101e-003 -2.0929670439900891e-002
      2.2697493993156345e-003 8.4081003510162681e-003
      -1.1980267569089622e-002 5.2128188069513462e-003
      4.3009115850203439e-003 -5.4421686022375826e-003
      3.6751382472712160e-002 -9.6362734379493876e-003
      1.2953879152928560e-002 1.0733795775303916e-002
      -1.3056402032352910e-002 -2.3580213521178024e-003
      -1.4469131570866923e-002 -8.6852930633152005e-003
      -1.2448944377663342e-002 1.3738630355648781e-002
      -1.2840407507842671e-002 1.5998251910709069e-002
      -1.6673572016556899e-003 3.9845293491804212e-003
      -1.2036440738258734e-002 1.1699542212680328e-002
      3.8280207089288025e-003 8.4679566489749775e-004
      1.6118236709305702e-002 2.5248692850775955e-003
      -1.1944162715699511e-002 1.1084068285361737e-002
      -1.7994221378172626e-002 -1.3363647597061797e-002
      1.0152133433528701e-002 -3.5567973667195809e-003
      -1.3719266589021159e-002 2.1468229796273160e-002
      1.4451153198228213e-002 9.6106551451155074e-003
      -1.2567400161560539e-002 -8.8567922336106608e-003
      2.2754406741718170e-003 -1.0414911022971459e-002
      -1.5525249995351592e-002 -2.1109588337937222e-002
      1.0751513925449502e-002 1.2018389189345320e-002
      -1.3837042756346755e-002 1.9377445652330658e-002
      4.1382177285813450e-003 -4.7330886610687283e-003
      7.6307375768088171e-003 -9.8930468388472807e-003
      -1.7833054803665128e-003 -1.9534092150539330e-002
      2.0838988715915423e-003 -5.6157232097939569e-003
      1.8685720866353311e-002 -1.1973013137662603e-002
      6.2956653107071377e-003 -8.1598821154934068e-003
      -3.3562790666318322e-002 -2.2125953201298241e-003
      -1.6626682519065186e-003 -9.7962589568102217e-003
      1.3405951105565401e-002 -8.9530877038669354e-003
      -5.9999139994425677e-003 -5.8098976968687394e-003
      1.0015454298144147e-002 3.4897250038943964e-002
      -7.5990711695068389e-003 1.5520531539818959e-003
      -3.8288409992472965e-003 1.6315612532847325e-003
      -7.2326315050601948e-003 -4.3939881364941062e-004
      1.2922921044950906e-002 -6.7228138324487458e-004
      -8.9027254619501259e-003 9.7763003157477508e-003
      -2.0645842519024647e-002 4.3893211420249781e-002
      -1.5462922224840881e-002 2.8299449271514215e-002
      -1.6366290896474133e-002 -2.8354818424052491e-002
      7.7111397269340978e-002 -1.1378650732737475e-002
      -5.7809888420213354e-003 1.6420046636462449e-002
      -3.0229540426815443e-002 -1.5888851606046632e-002
      -1.4113137346522295e-002 1.0599820924557333e-002
      2.2709496514699792e-002 1.9893162933106303e-002
      -3.6985909889669502e-002 3.1377918665861280e-002
      -6.0209817889980049e-003 -8.3553883819684569e-003
      -3.9944875793451066e-002 7.6563241299787786e-003
      1.8897151728216231e-002 3.4126889900120673e-002
      -2.2380764520106393e-002 -5.0977859173237021e-005
      5.0340698261790561e-003 1.4073973542587654e-002
      2.6110152221933226e-002 -3.9661715110823226e-002
      5.0018735352032551e-002 -2.4881021099906222e-002
      -3.8506382602728011e-003 -1.9182354439145111e-002
      3.8931614499501152e-002 -1.6533441805211740e-002
      3.7966823323461789e-002 1.7113710303518409e-002
      -9.0841935915488004e-003 -1.3027952515417867e-002
      1.5257005553666280e-002 3.0868868948876298e-002
      -3.4081676524696555e-002 2.6957962925671843e-002
      -6.0790052261375958e-003 1.5623901193332065e-002
      7.7021912775836320e-003 -4.2205103137444286e-002
      -2.5865917404676194e-002 -3.3287150510776249e-002
      -1.0873299159496858e-002 4.6607263523260238e-003
      -5.3721775005160406e-003 -7.0865738369856159e-003
      3.1311003345159225e-002 -1.8461918723066382e-002
      8.4421336168914632e-002 -7.7464547985681533e-003
      -1.1514555684096223e-002 2.1166448334489726e-003
      3.9337884244421990e-003 -1.5993325198371801e-002
      -2.0009630123530298e-002 -3.3995699185863183e-002
      1.3254312083972274e-002 4.6559765970763268e-003
      7.8112237224881656e-003 2.5071433446371402e-002
      1.7270667470531256e-002 5.1732989156764213e-002
      -1.7349814219954910e-002 3.4210373333232041e-002
      4.2555698779316871e-002 1.1787344351531608e-002
      1.3859680642874052e-002 -1.8319583735753067e-002
      -2.3526122563015950e-002 -2.2054228939631871e-002
      -2.3794778795170717e-002 9.3664320686850477e-004
      1.5228397178953837e-002 1.3570144005046485e-002
      -2.0635087149829576e-002 1.8397008554847338e-002
      -1.2600357301504645e-003 2.2134195684297611e-002
      1.4712601421241483e-002 2.5338620410878105e-002
      -1.5897295099336885e-002 1.4490137130949987e-002
      2.0062636746586379e-003 -4.4767765725680919e-002
      1.6286368690713249e-002 2.2550268179178535e-002
      -1.8358524533942811e-002 5.7997128139828120e-003
      8.9566306389743319e-003 6.2043944559749568e-003
      1.2862227377757579e-002 -1.6005307704128658e-002
      -3.8121325342514639e-002 -3.9327899450020243e-002
      -9.2030879590442646e-003 -2.1850804318895248e-002
      2.2150369005838385e-002 5.9486780516055156e-003
      1.5719824785232841e-002 -1.0355845080525310e-003
      -6.9427340858616668e-002 -2.6787036431833538e-002
      -6.5237027148172793e-003 1.1240679033522580e-002
      3.2389385023143952e-002 -3.0090115154376595e-002
      -1.6354540541142965e-002 2.5516767670823167e-002
      1.6552224949985855e-002 7.0384205871755812e-002
      3.6767437639750665e-003 -2.9483822853059449e-002
      -7.7802579400133454e-003 1.4706176687446823e-002
      -2.4190529073858387e-002 5.4592915777792843e-002
      -6.6264587038618208e-004 1.5895501703493919e-002
      -2.5346108025318895e-002 -1.1685435574043180e-002
      -2.0262266101674083e-002 3.4730546367829469e-002
      -1.8215926938387552e-002 1.7789472819048004e-002
      -2.0961617794430825e-002 -3.3530363554583990e-002
      7.6863475197911216e-002 8.6381862110592473e-003
      -5.9629471187670011e-003 -1.2669160968504655e-002
      -1.3799585941180723e-002 -1.9045883694416944e-002
      -2.4748435324425905e-002 8.5084051977349535e-003
      3.7379014062839406e-003 1.3547208192524255e-002
      -1.5026790240616501e-002 2.0493437667418238e-002
      1.3308808949021624e-002 -1.6049614542296840e-002
